， 0.007001 0.005613 -0.000388 0.003247 0.000022 -0.005447 -0.000599 0.002344 0.001939 -0.005675 -0.006558 0.000245 0.005590 0.005567 -0.001593 0.002258 -0.002734 -0.004961 -0.004113 0.004280 0.003231 -0.003569 -0.002988 -0.005117 0.003977 -0.007526 0.003165 -0.001116 -0.002208 -0.002286 -0.006129 -0.002137 -0.005056 -0.001193 0.004909 -0.000409 0.000261 0.001521 -0.000128 0.000442 0.002501 0.004651 -0.000453 -0.001965 0.007740 0.003237 0.000259 0.002650 -0.003019 0.007250 -0.006467 -0.001817 0.002982 0.004187 -0.007040 0.001034 0.005599 0.003547 0.005333 -0.003456 -0.007548 0.003001 0.001546 0.004263 0.006163 0.002646 -0.005192 -0.004799 -0.000251 0.002203 -0.000162 -0.001336 0.004127 0.003126 0.002295 0.000200 0.001203 -0.000243 0.005180 0.001500 -0.003759 -0.006659 0.005950 0.003630 0.003999 0.003772 -0.005101 -0.003050 0.001812 0.007928 -0.003537 0.003273 0.007463 0.002180 -0.001245 0.007204 -0.007310 -0.000007 -0.007908 -0.001835
： -0.000479 -0.004129 0.003310 0.002777 0.003591 0.003051 -0.002080 -0.004689 -0.004135 -0.000337 -0.000690 0.005131 0.002793 -0.000828 -0.000282 0.007326 0.004235 -0.007179 0.003793 -0.002809 -0.007440 -0.008240 0.003324 0.005607 0.000784 -0.000947 -0.001260 0.003104 -0.000551 0.002312 0.000505 -0.005756 -0.001579 -0.007546 -0.001651 0.000296 0.000969 0.001246 0.007226 -0.004668 0.005062 0.002076 0.000677 0.000375 0.003301 0.005455 0.002375 0.008389 -0.006490 0.006101 0.001472 0.002795 0.000007 0.003705 0.006176 -0.004316 -0.004334 0.004212 0.000396 0.000889 -0.007908 -0.001226 -0.002476 -0.001659 -0.006599 0.003231 -0.001247 0.000673 0.005279 0.006513 -0.000498 0.000637 0.003701 -0.007043 -0.005575 -0.008326 -0.003203 0.003446 0.004912 0.000580 0.008390 0.000703 0.002054 -0.004828 -0.000468 -0.001169 -0.007792 -0.006798 -0.007422 0.002043 -0.001272 0.008581 -0.000179 0.002097 -0.005537 -0.002642 0.001440 -0.002159 0.007077 -0.002956
。 0.003036 0.000906 -0.001471 -0.009049 0.002760 -0.004928 0.004026 0.005855 0.006684 -0.003503 0.001315 -0.002203 0.006703 0.004199 0.000469 -0.001800 0.000928 -0.004979 0.001197 0.007694 -0.000536 -0.001642 -0.006101 -0.007887 0.000297 0.002299 -0.004986 -0.000689 0.000507 0.008580 -0.001463 -0.005062 -0.002957 -0.006119 0.002774 0.005518 -0.005452 -0.003202 -0.000965 0.000783 0.003249 -0.002186 -0.005860 -0.001432 0.004255 0.000691 -0.003902 -0.003925 -0.000546 0.005012 -0.003237 0.001441 -0.009018 -0.000830 0.004239 -0.002074 0.004611 -0.003382 -0.004861 0.001621 -0.000957 0.008057 -0.003002 0.000707 -0.003166 -0.008817 0.004041 0.002064 -0.001258 0.003392 0.001897 -0.001241 -0.000600 -0.001302 -0.006523 0.003803 -0.000517 -0.004875 0.009238 -0.001677 -0.002964 -0.000363 -0.007162 -0.006944 0.002384 -0.000078 -0.004858 0.006740 -0.006568 0.007735 0.006850 -0.002042 -0.001783 -0.002290 -0.006777 0.005509 0.002304 0.007044 -0.002175 0.000490
无 0.002492 -0.002265 0.004324 0.004286 0.001568 -0.000050 0.000163 -0.004221 -0.002539 -0.008749 -0.003393 0.002181 -0.003851 -0.003898 -0.005005 0.000713 -0.000450 0.000472 -0.002226 -0.001058 -0.004747 -0.009455 -0.007412 0.005568 0.006173 -0.003428 0.003024 0.007032 -0.003526 0.003731 0.002957 0.002873 0.005633 0.000993 -0.004350 -0.009334 -0.002617 0.000962 -0.003165 -0.002902 0.002271 -0.001918 -0.002088 0.004459 0.006875 -0.002961 -0.002124 -0.001126 0.005516 0.001997 -0.005311 -0.004955 -0.000550 -0.002256 0.006998 -0.004720 0.003095 -0.004749 0.000343 -0.000886 0.003507 -0.002245 -0.002168 -0.002122 -0.000237 0.003021 -0.000308 0.001511 -0.001626 0.005775 -0.001699 -0.003860 -0.000783 0.005861 0.000436 -0.002031 0.004596 0.003466 -0.007185 -0.002829 -0.001433 -0.000652 0.004356 0.004342 0.005617 0.005070 0.002803 0.004700 -0.000793 0.000436 -0.005397 -0.002741 -0.006147 -0.003207 -0.000613 -0.002866 -0.001027 0.003113 0.002547 0.000603
1 0.004748 0.000742 0.005529 0.000289 -0.002939 0.001128 -0.007370 -0.003840 -0.003610 -0.003526 0.000537 -0.004196 0.007499 0.000434 -0.001634 -0.000888 0.000576 0.008117 -0.000681 -0.002584 -0.004797 0.002145 0.000558 0.003373 -0.002617 0.003837 -0.004787 0.005590 0.007036 -0.002668 0.003024 0.007937 0.001547 0.002133 -0.000918 0.008623 0.000338 -0.002295 0.006159 0.000432 -0.005021 0.004183 -0.002999 -0.002755 0.000681 -0.000527 0.000253 0.000591 -0.002088 -0.002042 -0.001079 -0.008131 0.003469 0.002093 0.001949 -0.003557 0.003688 -0.005324 0.003131 0.000891 -0.000704 -0.000306 0.000622 -0.002468 -0.002149 -0.001033 0.002189 -0.001136 -0.005522 -0.001204 0.000050 0.001061 0.006679 -0.002772 -0.000291 -0.002693 0.003870 0.002095 -0.002112 -0.003452 -0.002727 -0.000749 -0.001981 -0.000810 0.002551 -0.001559 -0.000497 0.001977 0.005484 -0.003995 -0.005546 -0.003708 0.000897 0.003825 0.004337 -0.003705 -0.002138 -0.007167 0.003844 0.003615
、 -0.002508 -0.000669 -0.003991 -0.004689 -0.005268 0.000120 0.007607 0.002699 -0.000882 0.003975 0.000245 -0.003720 -0.001561 -0.001920 -0.005118 -0.000173 0.002892 -0.003155 0.005612 -0.003022 0.006219 -0.002649 0.004530 0.005016 -0.005049 0.003337 -0.007025 0.001596 0.006097 0.009192 0.002396 0.000222 -0.002359 -0.001225 -0.007092 0.002167 0.002312 -0.009529 0.005550 -0.002234 -0.000404 0.003420 0.002856 0.002059 0.000127 -0.000457 -0.006371 0.005954 0.000687 -0.000751 -0.001062 -0.004959 -0.000322 0.001560 0.004537 0.007008 -0.007123 0.004820 -0.002941 -0.005838 0.005591 -0.002538 0.006741 -0.004187 0.001017 -0.000726 -0.002837 -0.001498 0.002539 -0.000669 -0.000276 -0.008148 -0.003336 0.000758 -0.008021 0.001958 0.003142 -0.005164 0.000207 -0.000429 -0.001100 -0.002683 -0.004413 0.000090 0.001247 0.003877 0.006064 -0.002425 0.001630 -0.003141 0.008101 0.003446 0.008772 -0.004689 -0.002612 -0.002210 0.003631 -0.000941 0.000219 0.000521
0 -0.001540 -0.000179 -0.005139 0.000820 0.000301 -0.005025 -0.003287 0.003726 -0.006535 -0.003459 0.002378 0.001621 0.006206 -0.000605 0.006335 0.000619 -0.000898 -0.002365 -0.001634 -0.002976 0.000436 -0.003758 0.002083 0.008466 -0.005709 -0.001124 0.002148 0.003080 -0.001268 0.006558 -0.003522 0.006183 -0.007119 0.001286 0.000670 -0.007333 -0.001614 -0.003090 0.003026 0.002535 -0.001810 0.002267 -0.005080 0.000110 -0.003609 -0.005258 -0.001723 0.001662 -0.000444 -0.001897 -0.003262 0.000080 0.003529 0.003305 0.000183 -0.002901 0.002016 -0.003589 0.000643 -0.003706 0.002763 0.004281 -0.002075 0.001637 -0.002823 -0.000204 0.000104 0.003470 0.006653 -0.002980 0.004766 0.000883 -0.001441 0.001138 -0.003189 0.001976 0.004837 0.002546 0.007939 0.004043 -0.000585 -0.007038 -0.000441 -0.006947 0.003479 0.000245 -0.005908 -0.003564 0.009776 -0.005250 0.006098 -0.002747 0.003053 -0.002050 0.005646 0.004300 0.003313 0.001770 -0.006730 0.002802
2 -0.000051 0.001570 -0.004407 -0.002064 -0.001169 0.001042 0.005375 -0.005435 -0.002626 0.000552 -0.006966 -0.003667 0.001744 0.002042 0.006159 0.003192 -0.000010 -0.000484 0.003883 -0.006994 0.004541 0.003405 -0.000797 -0.004219 0.005523 -0.000649 0.005462 -0.000065 -0.001785 0.000406 0.005402 -0.007461 -0.005909 0.003692 0.005226 0.002262 -0.004534 0.003279 0.001179 -0.008304 -0.003949 -0.004534 -0.003035 0.002928 -0.004487 -0.000931 -0.005297 0.002647 -0.001957 -0.001265 0.000147 0.000586 0.006367 -0.003759 -0.008848 0.000039 0.008286 -0.006850 0.000294 0.002008 0.003408 -0.001298 -0.008436 -0.000489 -0.003875 -0.001444 -0.000889 0.003181 0.007137 -0.004076 -0.000193 -0.004261 -0.000749 -0.005348 -0.008826 -0.000475 0.006698 -0.003398 0.003507 0.004977 -0.000216 0.001187 0.003345 -0.000817 -0.001328 -0.001200 0.005705 0.000082 -0.000674 -0.000380 0.005984 -0.005574 -0.001748 -0.000462 -0.004876 0.000428 -0.000835 0.000847 -0.007713 0.000156
常 -0.001350 -0.000703 0.003699 -0.000845 0.002091 -0.003664 -0.004490 0.004614 -0.000617 -0.003664 -0.004136 -0.002979 0.006122 -0.006067 0.005108 -0.007515 -0.003758 0.001133 -0.002583 0.001593 -0.000310 0.006591 0.001912 -0.007729 -0.005560 0.000141 0.004284 0.005844 -0.002650 -0.001090 -0.001386 -0.007540 0.003185 -0.002399 0.000753 0.002654 -0.005576 0.000437 0.002341 -0.002679 -0.000696 -0.003356 -0.008428 0.001981 -0.000186 0.001814 -0.003192 -0.007366 0.001235 -0.005472 -0.002815 0.004833 -0.005231 0.003542 -0.004528 -0.000224 0.004390 0.003579 0.006889 0.009587 -0.001832 -0.001613 -0.004901 0.007658 -0.003156 -0.003022 0.006300 -0.004577 -0.003452 0.004378 -0.002841 -0.004960 -0.000020 0.001169 -0.004005 -0.000485 -0.002350 0.004362 -0.004271 0.006343 0.000744 0.004516 -0.000973 0.003268 0.001290 0.004564 -0.000166 0.001952 0.003360 0.000490 0.002155 0.006251 0.003884 0.002285 -0.001049 -0.000405 -0.000494 -0.000176 0.004172 -0.007215
侧 -0.003552 0.005963 0.000115 -0.003529 0.000360 0.001017 -0.001278 -0.002821 -0.004372 0.004446 -0.002087 -0.004252 0.005891 -0.005997 -0.001187 -0.007274 0.008275 0.000439 0.000047 0.003004 -0.006966 0.002890 -0.005891 0.007034 0.001815 0.004454 0.005499 -0.000848 0.002031 0.002928 -0.006607 -0.000389 0.000179 0.002790 -0.007695 -0.003091 -0.003546 0.005688 0.005737 0.004538 0.007329 -0.008098 -0.001033 0.000390 -0.001987 0.004538 -0.006101 -0.001620 -0.007364 0.000271 -0.003447 0.006469 0.007623 -0.002620 0.004289 0.006856 -0.002780 -0.001881 -0.000966 -0.001429 0.002506 -0.001795 -0.008400 -0.007275 0.007626 -0.004633 -0.001353 -0.007663 -0.002766 0.008703 -0.005481 -0.003295 -0.002909 0.000351 -0.009801 -0.005200 -0.003483 -0.000508 -0.003897 0.005888 0.006816 0.000839 0.007600 0.003284 0.002149 -0.000403 -0.006053 -0.002668 0.003278 -0.007931 -0.002637 0.001184 0.000828 -0.000168 0.002880 0.000705 0.000039 0.003910 0.005531 0.000922
性 -0.002302 -0.000202 0.005412 -0.004223 0.003619 0.003394 -0.002255 0.002380 -0.004852 0.006305 -0.004114 0.006094 0.002154 -0.000587 0.005372 0.000553 -0.000858 0.001582 0.003896 0.003462 0.000412 0.000503 -0.005603 0.003624 -0.001103 -0.000729 -0.001209 -0.005985 -0.001243 -0.002109 -0.006951 -0.000604 -0.005121 0.001500 -0.007373 0.003703 -0.002600 0.000069 -0.001178 0.000674 0.007466 -0.005179 0.001721 0.000370 -0.004298 0.001001 0.005192 -0.000929 0.002405 0.005539 0.005034 0.005670 0.000061 0.002170 -0.000588 0.003431 -0.001091 0.003598 0.002422 -0.008203 0.001668 -0.005267 0.000240 0.005287 -0.002603 -0.000605 0.005647 -0.002465 0.003522 0.000693 -0.002748 -0.000048 -0.006950 0.006442 0.005939 0.003395 -0.002665 -0.003017 0.000226 0.002075 -0.002469 0.007415 0.007487 0.005347 0.003256 -0.000335 0.000490 0.000319 0.000095 -0.009546 -0.003942 -0.007685 0.009030 -0.001538 -0.000769 -0.004035 0.004171 -0.001175 -0.006969 0.004047
病 0.000737 -0.003636 -0.006337 0.005684 -0.001886 -0.001930 -0.000677 -0.005390 -0.000875 0.001911 0.001918 0.000082 0.005729 0.000403 0.003611 0.002415 0.006695 -0.003319 -0.003274 0.004158 0.003557 0.005829 -0.000674 0.001831 -0.003434 -0.000183 0.009053 -0.002504 -0.001353 -0.001915 -0.000458 -0.000160 0.001431 0.000726 -0.008120 0.002864 0.007781 -0.006075 -0.004761 -0.007359 -0.004920 0.000920 0.005767 -0.003268 -0.000356 -0.000014 0.001571 -0.001815 0.004714 0.000915 -0.007687 0.002378 -0.005416 0.000457 0.000175 0.002273 0.000730 -0.004842 -0.004213 -0.000393 -0.001552 0.002576 0.004349 0.007127 -0.007973 -0.005166 0.000156 0.005342 0.008976 -0.007836 -0.006173 0.001820 -0.002353 -0.006089 -0.001067 -0.000080 0.000140 -0.000937 0.001006 0.007455 0.005245 -0.007178 0.001356 0.006880 -0.002030 -0.002727 -0.000817 0.005265 0.004658 -0.005033 -0.003165 -0.001509 -0.002834 0.001929 0.003755 0.000567 -0.004146 0.000226 -0.001619 0.003330
院 -0.003733 0.005112 -0.005655 0.000904 -0.007178 -0.004968 -0.001256 0.003089 -0.001285 0.004840 -0.003483 0.000750 0.000992 -0.002036 -0.007037 -0.002906 -0.004922 -0.001198 0.006384 0.003421 0.000829 0.008803 -0.006976 -0.000276 -0.001886 -0.000482 0.001341 -0.000442 0.000012 0.000362 -0.001711 -0.002306 -0.000067 0.004787 -0.002149 0.000630 -0.000632 -0.001714 -0.000177 -0.004854 -0.006749 0.004030 -0.001616 0.005194 -0.008392 -0.003227 -0.000296 -0.002159 -0.007278 0.003935 0.003260 0.000274 -0.000112 0.000932 -0.004813 0.006848 0.000306 0.002747 -0.002893 -0.001152 -0.006344 -0.003285 0.006053 -0.002774 -0.002030 -0.002212 -0.002036 0.005607 -0.009825 -0.004577 -0.003558 -0.004937 0.000549 -0.005539 0.006971 -0.005025 0.001946 -0.006788 0.000837 0.001241 0.003626 -0.002168 -0.000319 0.003156 -0.000314 0.000772 -0.000131 -0.000454 -0.005160 -0.003057 0.001703 -0.007016 0.004942 -0.001988 -0.006469 -0.003787 0.002029 -0.001888 0.006012 -0.004412
正 0.001295 0.006581 0.000365 -0.000543 -0.003605 -0.005166 -0.008884 0.004272 -0.005539 -0.006760 0.001334 -0.001426 -0.002769 -0.004037 -0.008529 0.002442 0.004617 -0.005261 -0.001297 0.002559 0.003117 0.007190 -0.001461 0.001264 -0.002198 0.004773 -0.002840 -0.002609 -0.005600 0.000612 -0.001943 0.004567 0.003551 0.003385 0.001352 0.002056 0.001769 0.005280 0.002035 0.005270 0.006319 -0.000944 -0.001077 0.000585 -0.004991 0.003146 -0.002337 0.006873 -0.001383 -0.003742 0.003748 -0.000554 0.003258 -0.002102 0.000976 -0.001260 0.003699 -0.005493 0.000132 -0.001044 -0.005017 0.000060 0.000822 0.002670 0.003737 0.003828 -0.007148 0.000338 -0.003617 0.002993 -0.004275 0.003309 -0.006223 -0.000398 -0.002451 0.006884 -0.003981 -0.000631 0.000021 -0.006968 0.005867 -0.008677 -0.007050 -0.006038 -0.001104 0.004863 0.005864 0.001053 -0.002273 0.001604 0.000867 -0.008250 0.000128 0.004877 -0.001050 0.000582 -0.003011 -0.000018 -0.002166 0.001281
及 0.003933 0.000805 -0.000694 -0.000246 -0.005771 -0.002508 0.001651 -0.001136 0.004932 0.008044 0.007158 -0.005420 -0.002483 -0.008116 0.003937 -0.007736 0.000533 -0.008245 0.002536 0.005784 -0.002383 0.003607 -0.000956 -0.007223 -0.002599 -0.003051 0.002027 0.002517 -0.004034 -0.001123 0.007494 -0.002654 -0.000408 -0.002262 -0.000129 -0.000689 -0.004304 0.002111 -0.006913 -0.004045 0.004224 -0.000862 0.005652 -0.008451 -0.006253 -0.006025 -0.003225 -0.006276 0.001036 0.002457 -0.002297 0.005998 0.000402 0.003149 -0.000796 -0.004578 -0.007381 0.001011 0.000934 0.000595 0.000547 0.009156 -0.002894 -0.001853 -0.002206 0.003455 -0.008051 0.004116 -0.004304 0.003724 -0.006046 0.000922 0.008996 0.004360 0.001258 0.005224 0.003799 0.004059 0.003868 -0.008314 0.003426 -0.005111 -0.002008 -0.002964 -0.001627 -0.002708 -0.000674 -0.003820 -0.007267 0.000304 0.003410 -0.001998 0.005927 0.000084 0.003080 -0.001019 0.004553 0.000984 -0.000339 0.000241
3 0.005851 -0.006784 -0.008699 0.002757 -0.001826 -0.009134 -0.007274 0.003453 -0.005591 -0.000921 0.000285 -0.000284 0.000402 -0.002479 0.001562 0.008553 0.001151 -0.000595 0.005609 0.004299 0.001667 0.003591 0.006805 0.001749 0.004480 0.008058 0.000301 -0.004038 0.001165 0.003789 0.006404 0.000840 0.003651 -0.005212 -0.003552 0.000036 0.002344 -0.007401 0.007034 -0.004861 0.006474 -0.001811 0.003072 -0.004878 -0.001331 -0.000319 -0.006039 0.003973 0.000306 0.000876 -0.005004 -0.002521 -0.000524 -0.000982 0.006084 0.001583 -0.001217 -0.000376 0.002516 -0.005118 0.004633 -0.000054 0.002613 0.000125 -0.004799 0.004338 0.000349 0.000309 -0.000440 -0.004449 0.001993 -0.000338 -0.003616 0.002052 -0.007590 -0.000182 -0.006096 0.006077 0.000111 -0.000168 0.000149 0.005272 -0.006162 -0.005937 0.000695 0.001299 -0.005718 -0.004405 -0.005284 0.004118 0.007704 0.000424 0.002972 0.008653 0.009269 -0.000567 0.001251 -0.004984 0.000595 -0.005592
血 0.004179 -0.008554 -0.007558 -0.003167 0.004285 -0.003292 0.003573 -0.001691 0.001049 -0.000346 0.000770 -0.002889 0.002650 0.000906 -0.002537 0.000557 0.005149 0.004506 0.001439 0.001879 -0.005844 -0.000354 -0.006760 0.005176 -0.004921 0.005930 -0.004248 -0.002962 0.001487 -0.003303 -0.001401 0.003091 -0.001982 -0.000406 0.005310 -0.001121 -0.001386 0.004124 0.005482 0.004230 0.000070 -0.001623 0.005167 -0.003074 0.003240 -0.004612 0.002361 0.003798 -0.001199 -0.006556 0.003200 -0.000885 -0.001266 -0.002973 -0.004865 0.003248 -0.002342 0.000543 -0.001589 -0.004540 -0.005845 -0.003821 -0.004517 -0.005021 0.007793 -0.000230 0.000198 -0.000850 0.005604 -0.004298 0.001704 0.007768 -0.001221 0.007090 -0.001246 0.000736 -0.003501 0.000324 0.002583 0.004874 0.000051 0.002442 -0.005210 0.000662 -0.002018 -0.005380 0.005141 0.007056 -0.004915 0.004341 -0.003275 -0.006136 -0.005161 0.004822 -0.001309 0.005350 -0.001656 -0.004932 0.002111 -0.000008
史 -0.000711 0.005441 -0.001701 -0.004414 0.002832 0.005204 -0.005089 -0.001248 0.006180 0.004226 0.007057 0.001622 -0.006751 -0.001992 -0.002047 -0.004967 -0.001835 0.004854 0.006072 -0.006211 -0.002395 -0.008133 0.003838 0.000549 -0.004842 0.001034 -0.000325 0.001324 0.002236 0.000827 -0.004820 -0.007559 -0.002039 0.000240 0.007327 -0.002274 -0.005827 0.005771 -0.006534 0.003701 0.004860 0.004436 -0.003006 -0.008565 0.001494 0.000898 -0.003267 0.007023 0.000424 -0.006156 -0.000954 0.000570 0.001817 0.007735 -0.007667 -0.002635 -0.000917 -0.003043 -0.003288 0.001479 0.005168 0.001593 0.002025 -0.007497 0.002421 0.003333 0.008975 -0.008189 0.003455 0.000568 -0.001913 -0.003530 0.000258 0.004078 -0.000258 -0.003718 0.000467 -0.005553 -0.002888 -0.005939 0.003046 0.005006 -0.003172 -0.006460 -0.000322 -0.006599 0.005247 -0.000890 0.000451 0.003071 -0.001562 -0.005256 0.000283 0.001665 0.002092 0.004844 -0.000422 0.006293 0.001753 -0.003811
力 -0.000514 0.001012 -0.005787 -0.000974 -0.004619 -0.002706 -0.003597 0.005233 -0.001724 0.003548 -0.003563 -0.002266 0.006869 -0.000912 0.001908 -0.003825 -0.007048 -0.001620 -0.005829 0.005692 0.002371 0.003035 -0.003008 -0.003882 -0.001933 0.005718 -0.006124 -0.001827 -0.001548 0.004369 0.005007 -0.001589 -0.004689 -0.005396 0.004122 0.001060 0.004197 0.004931 -0.006308 0.002336 0.006736 -0.008190 -0.003086 0.000502 -0.000242 -0.007044 -0.001968 -0.001315 -0.002809 0.007479 0.002243 -0.003820 0.001148 0.003021 -0.003438 0.002568 0.005280 -0.002762 -0.000444 0.001688 0.006245 -0.002862 0.001024 -0.000345 -0.008081 -0.004082 0.005517 -0.008652 -0.004616 0.005106 -0.001690 0.004119 0.003887 0.002025 0.004972 -0.007844 -0.006907 0.005818 -0.000815 0.001215 0.002215 0.006651 0.005071 -0.004269 0.000177 -0.006397 -0.006131 0.002243 0.003692 -0.000258 0.001123 -0.000609 0.004012 -0.003135 0.009377 -0.000067 0.000849 0.001938 -0.001357 -0.004905
心 -0.001045 -0.002150 -0.001863 0.008796 -0.000689 0.007103 -0.002021 0.005794 -0.003369 -0.003483 0.000411 -0.001752 -0.001005 -0.001736 0.003234 0.001227 -0.006768 0.001572 -0.007284 -0.002128 0.008889 -0.000299 0.005826 -0.003915 -0.001713 -0.001104 0.003995 0.002368 0.004011 0.002761 0.002383 -0.000374 -0.005845 0.000851 0.000782 -0.000577 -0.000327 0.001740 -0.008452 -0.005062 0.000830 -0.003973 -0.002703 0.000167 0.001144 -0.000424 0.004401 -0.002867 -0.004431 0.000145 0.007461 0.002501 0.001288 0.001593 0.000891 -0.001673 -0.003344 0.005611 -0.008566 -0.005569 0.003363 0.007969 -0.001044 0.001088 -0.000465 -0.001521 0.003190 0.000848 -0.001453 0.007110 -0.006263 0.004638 0.003473 0.001886 -0.003117 -0.000820 0.004636 -0.002256 -0.003730 0.004099 -0.006591 -0.001269 0.002055 0.003478 -0.002507 -0.001202 -0.000138 -0.002330 0.003019 -0.005781 -0.006647 0.002309 -0.006468 0.006448 -0.003045 -0.006456 -0.000663 -0.004585 -0.006579 -0.002694
" -0.004934 0.003118 -0.001008 -0.004379 -0.008174 0.003123 0.000738 -0.005418 -0.001763 -0.002438 0.004259 0.001762 0.002916 -0.000980 0.003900 0.003671 -0.006398 -0.006722 0.006797 -0.007755 0.002426 0.005431 0.001356 -0.000116 0.002168 -0.008050 -0.006012 -0.007608 -0.000519 0.002662 0.002628 0.001696 -0.007468 -0.007104 0.007139 0.002675 -0.009412 -0.000868 0.008750 -0.008054 0.001418 -0.005804 -0.003574 0.005291 0.006529 -0.001843 0.002282 -0.002064 -0.001547 0.002730 0.003477 0.003045 0.007093 0.002497 0.002424 -0.004256 -0.004386 0.008798 0.000783 0.000316 -0.000726 -0.001289 -0.003887 -0.006134 0.003954 0.003384 0.002180 -0.006618 0.007046 0.002209 0.003795 0.006686 -0.004011 0.008194 -0.008615 -0.001550 -0.002923 0.001497 -0.000554 0.000472 0.001645 0.000871 0.006867 -0.000585 0.003293 -0.000375 -0.005527 0.000837 -0.003135 -0.003938 0.000284 -0.000440 -0.005208 -0.002665 0.002345 0.000260 0.003058 0.000799 -0.005083 -0.000515
双 0.000867 0.004819 0.008044 0.000262 -0.001381 -0.007565 0.000991 0.000095 -0.000816 0.004036 -0.005245 0.006220 -0.001915 -0.003466 0.005911 -0.001716 0.001095 -0.005389 -0.006368 -0.002470 0.001477 0.000923 0.000711 0.003108 0.002114 -0.005233 0.006493 0.002955 0.000614 0.006916 0.000267 0.006547 -0.006796 -0.004303 -0.001542 0.000272 -0.000056 -0.005695 0.001442 -0.003475 -0.001110 0.002094 0.000042 0.003134 -0.001915 0.001882 -0.006814 -0.000103 0.001384 -0.002907 -0.000952 -0.005729 0.001884 0.000379 -0.005377 0.008145 0.001389 0.007094 0.005242 -0.001673 -0.001494 -0.001190 -0.005880 0.000365 0.003889 -0.002394 -0.001491 -0.000423 -0.000716 -0.000834 -0.002285 -0.001667 -0.005930 0.002689 -0.001025 0.002145 -0.002003 -0.003591 -0.004334 -0.000668 -0.004719 0.003051 0.004279 -0.007716 -0.003733 0.005788 0.002387 0.000648 -0.000884 -0.002772 -0.004292 -0.002782 -0.002080 0.003617 -0.005883 -0.006315 -0.000464 0.008826 0.001598 -0.004836
5 -0.004352 0.005405 0.000990 0.001776 0.005870 -0.003482 0.004027 0.007239 0.006835 0.001245 -0.003134 0.000161 -0.004274 -0.000422 0.002762 0.003566 0.004079 0.007439 -0.000073 -0.002597 -0.001606 0.004151 -0.001980 -0.001146 0.004000 0.003878 -0.006467 0.006205 0.002615 -0.006306 0.004141 0.001306 0.003074 -0.001446 -0.008217 0.001618 0.000628 -0.004750 0.006153 0.002045 0.000329 0.000356 -0.005086 -0.004837 0.003611 0.000537 -0.004624 0.002473 0.004196 0.001427 -0.009241 0.006418 -0.000943 0.007131 -0.000957 0.003741 -0.000473 -0.002426 0.005311 -0.001085 0.003297 -0.001528 0.009112 -0.001503 -0.002655 0.003832 0.007191 -0.000574 0.007053 0.005195 -0.007327 0.004037 -0.004470 0.004921 0.003890 0.001519 0.001246 0.000255 0.004731 -0.002264 0.003301 -0.001929 0.003933 0.006133 -0.000492 0.002012 0.001207 0.002607 0.001421 0.002476 -0.003495 -0.007069 0.002458 0.000447 -0.002153 -0.001351 -0.000979 0.002965 0.005869 0.002834
m 0.007826 -0.001343 -0.006316 0.003514 0.001725 0.007189 0.001047 0.001967 -0.000523 -0.004709 -0.002455 0.006292 0.006149 0.001608 0.002929 -0.001424 0.000144 -0.007607 0.001949 0.004272 -0.000071 -0.000054 -0.003617 0.001468 0.001605 0.000190 -0.009284 0.003612 0.005562 0.001332 -0.005176 -0.004553 0.005940 -0.007862 -0.000565 0.001829 -0.002293 -0.002049 0.002050 0.004257 0.005167 0.007498 0.003251 -0.000583 0.006914 -0.001859 0.001959 -0.005391 0.007254 -0.008093 -0.005238 -0.000272 -0.005918 -0.001340 0.002931 -0.005615 0.001285 0.000935 -0.004504 0.001536 0.006306 -0.000785 -0.000570 0.001675 0.000886 0.005188 0.004891 0.000404 0.002355 0.002483 0.001750 -0.005390 -0.001384 0.000999 0.001038 0.000217 -0.001169 -0.003478 0.004709 0.001027 0.001396 0.005131 0.001067 -0.004651 -0.005553 0.004469 -0.001007 -0.007937 0.006832 0.006795 0.003103 -0.007282 0.004915 -0.002492 0.000158 -0.007568 0.004256 0.003948 -0.003600 0.003648
未 0.000981 0.006534 -0.004381 -0.006024 0.000077 -0.006983 0.004522 -0.000011 -0.005644 0.002586 -0.005106 -0.006355 0.001569 0.000651 -0.004055 -0.004329 0.001126 0.007520 0.001151 0.001783 -0.002987 0.005042 0.002459 0.009414 -0.002172 0.002130 -0.006888 0.002067 -0.002073 -0.003235 0.000585 0.000206 -0.003940 -0.002779 -0.002325 0.001003 0.001724 -0.001130 -0.003940 -0.004530 0.000690 0.001132 -0.005330 -0.000428 -0.002591 -0.001807 0.005061 -0.001802 0.002550 -0.001455 0.000086 0.004136 -0.001001 -0.008802 0.002078 -0.001406 -0.006418 0.000008 0.000481 0.000495 0.001490 -0.003330 0.002825 -0.000887 0.000959 0.004311 0.002348 -0.007577 -0.003223 0.000999 -0.002028 -0.000559 0.004817 0.001546 -0.000453 -0.005439 0.001743 0.003112 0.004187 -0.001418 -0.000549 -0.005219 0.007985 -0.000090 -0.003773 0.001138 0.004492 -0.001450 0.000491 -0.002675 0.002543 -0.001122 0.001682 0.002555 -0.005910 -0.000292 -0.006721 0.003031 -0.003451 0.000082
. -0.001509 -0.004744 0.001324 0.006620 -0.006959 0.001137 0.006031 0.001148 0.003102 0.000573 0.005190 -0.004982 0.007164 -0.004971 -0.001658 0.000646 0.000277 0.004444 0.003819 0.000770 -0.003619 0.007755 0.005723 0.003814 -0.001596 0.006367 0.003978 -0.000888 -0.002071 0.006164 -0.002991 -0.001834 0.000085 0.002880 -0.002151 -0.005247 0.004701 0.002461 0.001578 0.001207 -0.004621 -0.002229 -0.005427 -0.000886 0.002504 -0.000412 0.004869 -0.003623 -0.000051 0.000270 -0.003578 -0.007405 0.001792 0.001711 0.003253 -0.007525 0.000764 0.000344 -0.002701 -0.000131 -0.002149 0.001526 -0.005041 -0.000060 0.001827 -0.001551 0.000527 0.000362 0.000657 0.000970 0.008815 0.004939 -0.006447 0.005192 0.001310 -0.002716 -0.003757 0.001599 0.007973 -0.004138 -0.000313 -0.003939 0.000407 0.005832 -0.006439 -0.003286 0.004504 -0.002795 0.002818 -0.006063 -0.002587 0.004693 0.003428 0.003142 -0.000992 -0.000570 0.000087 -0.004086 -0.005484 0.000264
； -0.004544 0.001379 0.000758 0.001266 -0.004908 -0.006958 0.004015 -0.001738 0.002447 -0.002570 0.005013 0.002105 -0.001940 0.006126 -0.009185 -0.000411 0.004753 -0.000457 0.005135 0.001877 -0.002929 0.004293 0.006209 -0.003994 -0.002713 -0.005500 0.001341 -0.008315 0.003240 -0.006245 -0.000733 0.000988 -0.002762 0.004382 -0.002349 -0.002345 -0.005585 0.002181 -0.003826 0.001320 -0.000120 0.000126 0.006580 0.001182 -0.004555 -0.002434 -0.008079 0.001915 -0.003352 -0.006742 -0.003186 -0.002894 -0.002365 0.005559 0.009101 0.002276 -0.002740 0.001476 0.006048 -0.005879 0.002629 -0.000245 -0.001035 -0.005773 0.002334 0.006569 0.004030 0.004306 0.002081 -0.003653 0.004287 -0.004647 -0.002718 -0.002025 -0.004954 0.005808 0.000908 0.003603 0.003153 -0.000417 0.002515 -0.003525 -0.006260 -0.005169 0.003775 0.005601 0.000707 -0.008140 -0.000842 -0.006294 0.001332 0.003027 0.001964 -0.000196 0.004251 0.001588 -0.005217 0.006492 0.003329 0.000252
肌 -0.008432 -0.000674 -0.007399 -0.006766 -0.001861 -0.006285 -0.003652 -0.006748 0.001891 0.000517 -0.005349 -0.005912 0.003814 0.000146 -0.002789 0.008293 0.006425 -0.003642 -0.000514 -0.002011 0.002945 -0.001649 -0.007728 -0.001619 -0.000826 0.000702 0.005265 -0.001924 0.005547 -0.005012 0.001181 -0.001105 0.005027 0.006470 0.006725 -0.006539 0.005907 0.004218 0.002744 -0.000634 -0.002821 -0.001579 0.007213 -0.000061 -0.007538 0.005998 -0.004039 0.005898 0.005741 -0.003292 -0.009248 -0.000164 -0.000709 -0.006434 -0.005031 -0.005151 0.003619 0.007663 0.007618 -0.003813 0.000123 -0.005814 0.000465 0.003626 0.001475 -0.002604 0.006133 0.000743 0.000645 -0.000178 0.003199 -0.003774 -0.000905 0.000133 -0.004567 -0.004955 -0.002166 0.001834 0.001065 -0.001289 -0.006741 0.002398 -0.003453 -0.004946 0.007809 -0.004367 -0.002074 -0.003036 -0.007008 0.003419 -0.001722 -0.002551 -0.000668 -0.003656 0.003120 0.002189 -0.006095 0.002437 -0.001330 -0.001184
体 0.005246 -0.006220 0.001792 -0.003022 0.004540 0.000218 -0.003578 -0.002137 -0.002717 0.003924 0.002632 -0.001930 -0.008503 0.002141 -0.002897 -0.002177 -0.006122 0.003763 0.002095 0.001682 -0.008375 -0.005744 -0.007544 0.006210 -0.004395 0.001041 0.000101 0.001054 -0.000751 0.002990 0.000473 -0.000368 0.002082 0.000593 0.000463 -0.004744 -0.003516 -0.001845 -0.006796 0.003383 0.002249 -0.006391 -0.001616 -0.003083 -0.004541 -0.002916 -0.002795 -0.000324 0.000443 -0.000399 0.003934 0.000395 -0.002067 0.000540 -0.002465 0.006491 -0.002770 0.002362 0.004230 0.004372 0.000967 -0.004045 -0.000154 0.001464 -0.003454 0.006625 -0.000496 0.005281 0.001445 -0.002597 -0.007734 -0.008760 -0.000820 -0.004263 -0.002672 -0.008746 -0.001215 -0.002123 0.000839 -0.000432 -0.001571 -0.004348 0.001118 0.005656 0.001380 0.008655 0.005490 0.006624 -0.000173 -0.007174 -0.001819 -0.003572 -0.001749 -0.003455 0.002947 0.003784 -0.002468 -0.002045 -0.001755 -0.002398
右 -0.004181 0.004249 -0.004138 -0.006369 0.005153 0.000269 -0.002930 -0.000708 -0.006684 -0.001998 0.000427 -0.004204 -0.002474 -0.000171 0.000959 0.003189 0.001869 -0.007019 0.004488 -0.003031 0.001833 -0.001741 0.003469 0.001824 0.006543 0.000273 0.000124 0.008326 -0.004877 -0.002267 -0.000309 -0.007666 0.000878 0.001042 -0.001207 -0.005393 0.007679 0.002019 -0.004859 0.000289 -0.000876 -0.004921 0.000181 0.004436 0.004245 -0.005048 0.002330 0.004650 0.003615 0.002398 -0.005988 -0.000739 0.000707 -0.001779 -0.000975 0.003864 0.001004 0.000217 0.001064 -0.003046 0.000640 0.007328 0.007356 -0.000986 -0.002185 0.007295 -0.000467 -0.004528 0.001492 -0.003404 -0.004164 0.005551 0.000170 -0.002535 -0.000595 -0.002078 0.006214 -0.002516 0.000925 -0.003468 -0.004041 0.002686 -0.000964 0.002426 -0.004731 -0.003921 -0.000349 -0.003393 -0.001329 -0.003429 -0.006404 -0.007646 -0.002355 -0.003580 -0.003584 0.001569 0.000539 -0.001417 0.000334 -0.005567
左 -0.004557 0.002376 -0.005826 -0.004515 0.000750 -0.003411 0.000989 0.008650 0.003414 0.004692 -0.000853 -0.001674 0.007634 -0.004625 0.000305 -0.002834 -0.009260 -0.000018 0.001135 -0.001610 -0.003776 -0.002803 -0.008064 -0.000562 -0.004444 0.000082 0.005895 0.003455 -0.007925 -0.003582 0.005005 0.002364 -0.003784 -0.002729 -0.000349 0.002351 -0.002572 -0.001386 -0.006501 -0.000960 0.000204 -0.000252 -0.000074 -0.001815 0.008070 -0.000729 -0.002979 -0.001961 0.002187 -0.003181 -0.001621 0.000880 0.005933 0.003393 0.000784 0.008185 0.000005 0.007190 -0.005538 -0.000118 0.002524 -0.003167 -0.001072 -0.005394 -0.005107 -0.006574 -0.002684 0.000521 0.004229 -0.003407 0.005528 0.001847 0.004953 0.002174 0.004350 0.002421 -0.003967 -0.002799 -0.007229 -0.003157 -0.000882 -0.000992 -0.005479 -0.007126 -0.008462 -0.001683 0.002812 0.002849 0.007496 0.002833 0.001774 0.005139 -0.002176 -0.004682 0.006818 -0.003931 -0.008129 0.006128 0.004255 -0.004512
动 0.002346 -0.000607 0.001404 0.000225 -0.005339 0.004672 0.005724 0.000207 -0.000778 0.008150 -0.003926 -0.001685 0.006988 0.007709 0.005411 0.000082 0.001045 -0.001197 -0.002018 0.005962 -0.005144 0.000588 -0.000630 0.001093 -0.000418 -0.006485 -0.006636 -0.000062 -0.002959 0.000704 0.004245 -0.002505 0.006926 -0.000600 0.005372 0.004747 -0.003255 -0.000324 0.002977 0.003825 0.004750 0.008160 -0.002070 -0.005048 -0.006702 0.000321 0.007366 0.002326 -0.002577 0.006850 -0.002533 -0.001422 0.000915 0.004727 0.000396 -0.002377 -0.007072 -0.003991 -0.000338 0.000915 0.003320 -0.001044 0.001392 -0.004174 0.002709 -0.000630 -0.005688 -0.009419 0.001194 -0.000394 0.002005 -0.000195 0.003306 -0.001137 -0.000376 0.001354 -0.000012 0.007535 -0.003882 0.001068 -0.005330 -0.001107 0.007068 -0.000616 -0.004522 0.002526 0.000389 -0.006327 0.001639 0.000754 0.004545 -0.000300 -0.004188 -0.001275 0.001702 0.001087 0.000123 -0.002051 0.000238 0.005669
4 0.005241 0.000119 -0.000828 -0.003593 -0.001157 0.003320 0.004891 0.004504 -0.000918 0.007566 -0.000264 0.000927 0.000319 -0.000998 0.000678 0.000614 -0.003797 -0.004296 -0.001620 0.004061 -0.005607 -0.000080 -0.003108 0.007431 -0.002574 0.009227 -0.001137 0.001529 0.004473 0.000045 0.000197 -0.003521 0.009200 0.003397 -0.002859 0.004804 -0.001254 -0.006635 -0.007534 -0.004378 -0.005715 -0.002845 0.000858 0.004811 0.007547 0.000407 -0.005197 0.003138 0.007027 -0.001402 0.005385 0.002057 0.000714 0.001926 -0.004700 -0.000451 -0.003330 -0.005472 0.001460 -0.002157 0.002634 0.006102 -0.005021 0.007255 0.001118 0.000625 0.008187 -0.003855 -0.003131 -0.006791 0.005239 -0.003713 -0.006030 0.000322 0.003731 -0.000504 0.003011 0.000930 -0.004063 -0.002889 -0.005551 0.003389 0.001090 -0.002402 0.004702 -0.005090 0.001760 -0.000291 0.001150 -0.001386 0.002225 0.000935 -0.002534 -0.001483 0.000780 -0.001073 0.001979 -0.003575 -0.002490 0.001378
分 -0.001522 0.003282 0.002604 -0.003663 -0.006391 0.001562 -0.004885 0.004605 0.000197 0.001189 0.000462 -0.003877 0.004436 -0.000426 0.000774 0.005266 0.001569 0.004904 0.002332 0.006084 -0.004312 0.005456 -0.004263 0.001451 0.005754 0.002381 0.000909 0.002766 0.002483 -0.004903 -0.006358 -0.002698 0.003160 0.001053 0.002425 -0.002031 0.001877 0.005313 0.002435 -0.000178 0.003453 -0.002437 0.003967 0.006654 0.002424 -0.000038 -0.006881 0.004015 0.001640 0.001831 -0.004858 0.002321 0.006816 0.002562 0.005023 -0.003790 -0.005286 0.003808 -0.000498 0.001502 0.001567 -0.005010 0.005827 -0.004687 0.001628 -0.005491 0.001356 0.002584 0.002971 -0.000016 -0.002477 0.000605 -0.005548 -0.009029 0.007728 -0.003676 0.005417 0.002227 0.002009 -0.004834 -0.003846 -0.001355 -0.002741 -0.004169 0.003823 -0.001761 0.007855 -0.000312 0.000928 0.000667 -0.001277 -0.006805 0.005942 0.002929 0.000041 0.001578 0.004077 0.003270 0.002079 -0.004022
出 0.004838 -0.002872 0.005728 -0.005390 0.006130 0.004622 -0.004014 -0.004014 -0.003317 -0.000599 0.002582 0.000496 -0.006765 0.003811 0.000406 0.000795 0.000595 -0.000726 0.005657 -0.004997 0.000010 0.001034 0.001859 0.006661 -0.004146 -0.000012 -0.003611 -0.002930 0.003416 0.004435 -0.002699 0.000368 0.002659 0.000394 0.001022 -0.004587 -0.005872 0.000638 -0.000189 0.000924 -0.002880 -0.003659 -0.004158 -0.000589 0.000173 -0.002640 0.005242 0.001200 -0.006961 -0.001053 0.002057 0.003524 0.000365 0.002471 -0.002507 0.002804 0.005924 0.001160 0.000005 0.000029 -0.003073 0.006612 -0.000776 -0.006296 -0.007429 -0.007510 0.003904 0.001993 -0.000431 0.005381 0.000305 -0.004055 -0.007378 0.004724 0.000060 -0.000677 0.004584 0.001101 -0.001166 0.008140 0.003138 -0.001758 0.001523 -0.006175 0.001095 -0.002305 0.003191 -0.001627 0.000846 0.001190 -0.000852 -0.003041 -0.000434 -0.004482 0.001089 -0.001780 -0.000904 -0.008839 -0.007115 -0.003630
I 0.000088 0.000861 0.004701 -0.003303 0.005805 0.004448 -0.002479 0.000664 0.005373 -0.005861 0.000274 0.006632 -0.002083 -0.000564 -0.000956 -0.000274 -0.003221 -0.006081 -0.002301 -0.008424 -0.000503 0.002065 -0.002550 0.000903 0.004710 0.003163 0.003977 -0.002781 0.001608 0.007278 0.003221 -0.005485 0.000847 0.005530 -0.003777 0.003526 -0.000916 0.000971 0.008526 -0.003946 -0.000835 0.001338 -0.002141 0.002055 -0.001674 -0.000120 0.004958 0.003729 -0.004962 0.006457 0.004306 0.003827 0.004182 0.004019 0.007150 -0.004008 0.000358 -0.000895 -0.005311 -0.001267 0.001930 0.005796 -0.004399 -0.005113 -0.001031 -0.000408 0.000475 -0.004991 0.001248 0.001906 0.005290 -0.002652 0.000649 0.007451 0.003439 0.006704 -0.003020 0.003025 0.003726 -0.006341 0.001623 -0.007260 -0.000891 -0.003212 -0.002648 0.003252 0.001263 0.001686 -0.003267 0.004521 -0.003320 -0.002773 -0.001637 0.002342 -0.004784 -0.004779 -0.000158 -0.000842 0.001354 0.004993
肢 -0.004029 0.002613 0.008514 0.001549 -0.001758 0.001682 -0.007179 -0.002597 -0.000685 -0.004737 0.000707 0.002304 0.002876 -0.002346 0.005556 -0.004808 0.004461 -0.008152 -0.001957 -0.006840 0.001907 0.002807 0.000267 -0.003434 0.000705 -0.004183 0.003785 -0.005539 -0.001321 -0.005612 -0.003962 -0.002476 0.000801 -0.000172 0.005235 0.000136 0.004189 0.005685 -0.001916 -0.002412 0.003049 0.000983 -0.003078 -0.001188 0.002551 -0.000495 -0.003351 0.000068 0.002328 -0.008821 0.003981 -0.002638 -0.003407 0.004123 -0.000341 -0.006684 -0.002508 -0.001272 0.006462 -0.004336 0.007157 0.002353 0.002667 0.001027 0.002644 -0.006216 -0.001480 0.001087 -0.004391 -0.000685 -0.002753 0.002358 0.001017 0.001630 -0.000294 0.008183 -0.001342 0.006964 0.002217 -0.005262 -0.004946 0.005863 0.002748 -0.004079 -0.004831 0.002117 0.004018 -0.002737 0.002558 -0.002474 -0.003077 0.006542 0.004813 -0.001760 -0.002570 -0.000632 -0.002193 0.002330 -0.007603 -0.003501
反 0.003298 -0.003051 0.000589 0.005331 0.006431 -0.000403 -0.007301 -0.000288 0.000049 -0.004058 0.004959 0.002117 -0.000558 -0.006695 0.006741 0.001414 -0.000304 -0.003091 -0.005878 -0.007973 0.000446 0.007177 -0.005959 0.005226 0.000046 -0.001136 -0.001463 0.000150 0.002148 0.001092 0.003680 -0.003349 0.005441 -0.008221 0.001692 -0.002019 0.002415 -0.002452 0.002837 0.003459 -0.004690 -0.001392 0.000663 -0.000479 -0.003436 -0.007898 -0.006383 0.002862 0.002495 -0.002951 -0.001204 -0.006297 0.003894 -0.004125 0.007577 -0.000097 -0.001960 -0.002428 0.000648 0.006224 -0.000310 0.000992 -0.002851 0.005242 -0.000351 0.002186 0.004008 0.005464 0.006222 0.002401 0.005072 0.006729 0.001082 0.005863 -0.003130 0.001299 -0.000480 -0.006255 -0.003128 0.002283 0.002553 0.001104 -0.008819 -0.003221 -0.005327 0.007841 -0.002717 0.004710 0.000720 0.005840 0.005246 -0.005788 0.002619 0.003368 0.006736 0.002520 0.002409 0.002832 -0.003944 -0.000828
年 0.000037 0.002431 0.000294 0.004534 -0.005265 0.005490 0.002896 -0.004771 -0.007154 0.004592 0.003209 -0.006936 -0.000339 0.001478 -0.004699 0.002918 -0.003231 0.003336 0.001582 -0.005518 -0.005863 -0.004431 -0.003346 0.006585 0.000332 0.002514 -0.000461 -0.002846 -0.000177 -0.002217 -0.001278 -0.003045 0.004839 -0.000679 0.001449 0.005788 -0.005451 -0.005651 -0.000197 -0.002349 -0.004784 -0.003196 0.004725 0.004983 -0.006160 -0.001051 -0.000340 0.006376 0.002982 -0.004710 -0.005447 -0.005488 0.000648 0.000260 0.008203 -0.003970 -0.001257 0.002157 -0.005017 0.000742 -0.004563 0.004498 -0.002934 -0.005602 -0.004907 -0.001852 0.009487 -0.001810 -0.001516 -0.002170 0.005097 0.002988 -0.000100 0.002103 0.004514 0.006229 0.003678 -0.000373 -0.002668 -0.001364 0.001406 0.003827 0.002454 0.005872 -0.003976 0.002051 -0.002933 0.001768 -0.003941 -0.005761 0.002664 0.001554 -0.003385 0.001880 0.000241 0.005550 0.008907 0.000005 -0.006360 -0.004752
音 0.004521 0.001910 0.002312 0.000704 0.000333 -0.001982 -0.001769 0.002018 -0.001302 0.001500 0.006473 -0.000675 -0.000903 0.001488 0.000763 -0.002422 0.000704 0.002883 -0.004540 0.004655 0.001597 -0.000503 0.002179 -0.001262 -0.004855 0.005859 -0.001831 0.000305 -0.003971 0.003199 -0.005348 -0.000114 -0.005915 -0.002571 0.005988 -0.007111 0.008514 -0.003779 0.000425 -0.005091 0.002353 -0.002373 -0.001605 0.000794 0.002366 0.001318 0.003358 0.002603 0.003562 -0.004392 0.001166 0.002196 0.001263 -0.002236 0.005033 0.002994 -0.008019 -0.007594 0.003450 -0.004651 0.005325 0.000741 -0.002234 -0.001216 -0.000512 0.000663 0.004820 0.006410 0.002058 -0.006208 0.004307 0.007299 0.000997 0.002799 -0.004299 -0.002203 -0.003692 0.001425 0.007847 0.001081 0.005699 0.000479 0.001774 -0.000812 -0.003541 -0.003221 0.003853 -0.000785 -0.003984 -0.001984 -0.000922 0.002893 -0.001205 0.000524 -0.003619 -0.001037 -0.002688 0.002153 -0.003431 -0.000814
者 -0.000254 0.002912 0.000704 -0.008099 -0.003111 0.000614 0.001322 0.006792 -0.004323 0.000388 -0.007029 -0.002135 0.005332 -0.002791 -0.004346 0.004041 -0.001929 -0.002652 -0.005831 -0.004969 0.003381 0.000166 -0.001949 0.002359 -0.008040 -0.006582 0.004036 -0.000698 0.004180 0.004021 -0.002927 0.006162 -0.004281 0.004470 0.003898 0.004792 -0.001131 0.003237 -0.001327 -0.001904 0.002639 0.000411 0.009531 -0.000089 0.004478 0.006541 -0.002582 0.001242 0.005032 -0.002680 -0.004651 0.000172 0.001616 -0.006745 0.001965 -0.003143 -0.004741 0.005591 -0.000318 0.004795 0.002195 -0.000803 -0.001350 0.007868 -0.002627 0.007455 -0.007246 -0.002199 -0.006445 0.001203 -0.000409 0.003434 -0.001827 -0.003687 -0.003030 -0.003901 0.005938 -0.006763 0.002876 -0.001730 -0.000531 0.001943 0.008682 0.000063 0.006724 -0.002463 0.001131 -0.007858 -0.005903 0.007810 0.002609 0.005296 0.003447 -0.006701 -0.000286 0.003225 0.002448 0.006743 -0.008314 0.000094
不 -0.002265 0.002230 -0.004195 0.000311 0.008255 -0.001016 0.000641 -0.002391 -0.002105 0.000996 -0.000905 -0.000842 0.001816 0.000890 0.000673 0.003471 0.005812 -0.004983 -0.004423 -0.002056 0.004451 0.005974 0.000952 0.000308 0.009130 0.001785 -0.001670 0.001070 -0.001420 -0.004326 0.001672 -0.003649 -0.000282 0.000821 0.003978 -0.000409 0.001850 0.004318 -0.001375 0.008226 -0.007219 0.001526 0.006446 -0.004548 -0.000557 -0.000050 -0.005049 -0.004454 0.005387 0.000830 -0.000414 0.000183 0.000709 -0.007471 0.007615 0.009362 -0.002347 0.005755 -0.002594 0.002440 -0.002895 0.009132 -0.002694 -0.000315 0.002392 -0.002457 0.005234 -0.004275 -0.007895 -0.001477 0.002349 0.002940 0.002851 -0.001355 0.000553 -0.000277 0.001014 0.006511 -0.002442 0.000711 -0.001063 0.001341 0.000039 0.001318 -0.000720 0.001717 -0.002443 0.002087 0.006055 -0.005406 -0.001279 0.003770 -0.004256 0.000342 -0.000528 0.001515 0.003177 -0.001170 -0.003428 -0.000705
患 -0.004643 -0.001725 0.005877 0.006388 -0.001553 -0.003912 0.007455 -0.003373 -0.002177 0.003412 0.008390 -0.000593 0.004826 0.001891 -0.005526 -0.000007 -0.002502 -0.000436 0.002088 -0.001089 -0.004747 -0.004575 0.001505 0.000569 0.001611 -0.004225 -0.002679 -0.002199 -0.005324 -0.008617 0.004095 -0.000274 -0.004484 -0.001845 0.007770 0.005654 0.006395 0.000047 -0.004336 -0.002549 0.007334 0.008447 0.004163 0.007427 0.002010 0.001305 -0.004972 0.000788 -0.001624 0.006424 0.003379 0.004574 -0.004153 -0.001779 -0.004694 -0.004634 0.002612 -0.002535 0.009138 -0.005044 -0.006128 -0.006584 0.002115 -0.003990 0.001416 0.005398 0.004976 0.001852 0.001133 -0.004143 0.008035 -0.000782 -0.001356 0.006611 -0.005366 -0.002283 -0.003551 0.000488 -0.001048 -0.001365 0.001043 -0.006700 -0.006771 -0.003833 0.004331 0.003953 0.003035 -0.005421 0.000674 0.002884 -0.004087 -0.008517 0.005862 0.002454 0.000136 -0.000470 0.003067 0.002380 0.004851 -0.007385
/ 0.005914 -0.001876 -0.004951 -0.007194 -0.000388 0.005547 0.000066 -0.000020 0.004294 0.005228 -0.000611 -0.001385 0.006324 0.005074 -0.001483 0.001135 0.003049 0.006051 0.000554 -0.001548 0.004210 -0.000932 0.000976 -0.007818 -0.000025 0.002836 -0.004523 -0.001140 0.004192 0.004383 0.005263 -0.006045 -0.004348 -0.000643 0.001748 -0.004480 -0.001763 0.001523 -0.001504 0.003142 0.005791 -0.005461 -0.001986 0.005105 -0.003913 0.003314 0.007022 -0.000917 0.007655 0.001255 -0.001391 0.000447 0.001504 0.004088 -0.002848 0.003705 -0.004434 -0.001563 -0.003211 0.003643 0.005753 -0.004088 -0.005198 0.005094 0.005244 -0.004658 0.000620 0.003407 -0.006369 0.006527 -0.003967 -0.001503 0.008623 0.000675 -0.005960 0.000975 -0.002017 -0.003650 -0.006188 -0.000489 0.003095 -0.000226 -0.001539 -0.006682 -0.003492 -0.001691 0.001000 0.001588 -0.001162 -0.005148 0.004312 -0.001720 -0.001511 0.001212 0.003146 0.009339 -0.005424 -0.005047 -0.002302 0.005582
6 -0.000970 -0.001091 -0.003830 -0.000232 0.004650 0.003719 -0.008243 0.001881 0.002257 0.004137 0.000429 -0.002268 -0.000953 -0.003147 0.002045 -0.003988 0.000528 -0.000342 0.004182 0.000503 -0.002334 0.003263 -0.000509 0.001572 -0.002969 0.006558 0.005391 -0.001539 0.002881 -0.003714 -0.000271 0.000918 -0.006632 0.004205 0.005330 -0.008254 0.003619 -0.000303 0.000660 0.003595 -0.000900 0.000582 -0.004532 0.005939 -0.005548 0.003096 0.002515 -0.007482 0.004004 -0.002912 0.003335 -0.000371 0.003967 0.000328 -0.001310 -0.001799 0.001351 0.000262 0.007438 0.001396 0.001989 -0.000710 -0.001873 -0.007546 -0.003772 0.001372 0.007986 -0.003937 -0.001611 0.001516 -0.001926 -0.003651 -0.003372 -0.001754 0.008003 -0.003293 -0.002968 -0.004021 0.007480 -0.006257 0.004804 0.002565 0.002890 0.005181 -0.001824 -0.003322 -0.006480 -0.006760 -0.006119 -0.003802 -0.000411 0.005421 -0.004128 -0.004682 -0.001578 0.002096 0.000167 -0.001188 0.004307 0.000576
诊 -0.000710 -0.000921 -0.004718 -0.003758 0.002577 -0.006420 -0.000795 -0.004509 -0.007146 0.001555 0.005647 -0.006012 0.002343 -0.006225 -0.001589 -0.007743 -0.001969 0.001221 0.004623 0.004695 0.002771 -0.000968 -0.009352 0.003247 -0.000988 -0.007276 -0.000652 0.000318 0.000543 0.000161 0.001688 -0.002928 0.005009 -0.004106 -0.002261 -0.004935 0.002091 -0.007744 -0.001347 0.003307 0.001657 -0.002315 -0.000086 0.008877 0.005658 0.005181 0.001704 0.004413 -0.000588 -0.001020 0.001082 0.000671 0.006150 0.001369 0.004411 -0.009213 -0.004769 -0.001524 0.000171 -0.004450 0.004320 -0.007329 -0.000779 -0.005843 -0.000790 -0.001048 -0.003075 -0.003934 0.006729 -0.000419 -0.007912 0.000140 -0.002262 0.001071 0.005793 -0.006960 0.000248 -0.005354 0.002820 0.000222 -0.005432 -0.001909 0.001122 0.003104 0.002704 0.001245 0.002361 0.000660 -0.006593 0.003188 -0.000677 -0.000614 0.001887 0.002538 -0.006685 0.008411 -0.002280 0.003364 -0.005389 0.002757
脑 0.001864 0.001241 -0.003749 0.005464 -0.002214 0.006314 0.002693 0.003433 -0.001298 0.004308 -0.000326 0.008232 0.006726 -0.007306 0.000079 -0.000212 0.004200 -0.004444 0.006163 0.002751 -0.004024 0.002660 -0.002120 -0.006069 0.004455 0.000993 -0.004222 -0.005178 -0.004544 -0.001729 0.001766 0.004696 -0.000697 0.004046 0.008097 0.005457 0.000581 -0.005878 -0.004372 -0.001718 0.002364 0.002629 0.001085 0.000227 0.004657 0.002994 0.000983 0.003056 -0.001940 0.002131 -0.006395 -0.002075 0.000980 0.003106 0.003236 -0.004613 0.004250 -0.001939 -0.000694 -0.001475 0.000484 -0.004142 -0.002585 -0.004682 0.000445 -0.000320 0.000968 0.003716 0.003092 0.002078 -0.001975 -0.001841 0.005007 -0.007173 -0.003649 0.000793 0.001788 0.002427 0.003824 -0.000657 -0.006657 -0.004855 0.002201 -0.002718 -0.002796 -0.000392 0.005183 0.007084 0.003455 -0.001030 0.002115 -0.001295 0.001461 -0.000036 0.002514 -0.001129 0.005728 -0.000130 -0.001707 -0.000009
查 0.003209 0.000256 -0.001487 -0.003399 -0.000966 0.000426 0.005231 0.000191 -0.006595 0.003791 0.001198 -0.005156 0.001697 -0.002241 -0.000491 -0.003431 0.005677 -0.005737 0.005621 0.002383 0.001724 0.002908 -0.007269 0.006748 0.002011 0.002587 0.001144 -0.004500 0.004369 0.002885 -0.001672 -0.005892 0.001287 0.003800 0.000739 0.000526 -0.007668 -0.006079 -0.003759 -0.002076 0.009071 -0.001040 0.000634 0.002864 0.007594 -0.001515 -0.005024 0.006217 0.002804 0.000433 -0.003366 -0.001256 -0.007200 -0.002645 -0.006175 0.001449 -0.000990 0.000804 -0.004052 0.006757 0.006045 -0.004530 -0.006390 -0.002666 -0.005880 0.001142 -0.001717 0.005114 0.003993 -0.002782 -0.000222 0.004116 -0.004593 -0.004565 -0.003144 -0.002557 0.003432 -0.003697 0.000162 -0.001383 0.004855 0.005007 -0.002319 -0.004059 -0.003842 0.001199 -0.001339 0.000295 -0.001134 0.000539 0.006215 -0.000714 0.000612 0.000139 0.007014 -0.002455 -0.001489 0.003782 -0.003483 0.000568
时 -0.001420 -0.005381 0.003482 0.001728 -0.004492 -0.001216 0.004017 -0.005757 -0.000966 -0.004120 0.002803 -0.004390 -0.004409 0.001684 -0.003636 -0.002810 -0.003805 -0.003827 0.000794 -0.001516 0.000376 0.000800 -0.005514 0.003797 -0.005830 0.003659 0.008923 0.001642 0.002779 0.000988 0.006769 -0.000586 0.002970 0.006034 -0.004835 -0.007209 -0.003737 0.007928 0.002019 -0.002893 0.006517 0.002121 -0.003093 -0.009589 -0.002750 -0.003822 0.008338 0.001535 -0.000164 0.002725 0.000129 0.001241 0.007967 -0.000797 -0.003256 -0.001947 -0.005686 0.005334 0.006784 -0.002971 -0.000413 -0.005736 0.001246 -0.003439 0.001631 0.002285 -0.004001 -0.002221 0.000283 0.000149 0.000076 -0.003389 0.007897 0.005149 0.005535 -0.000777 0.000715 -0.001006 -0.000068 -0.005718 -0.002386 0.003097 -0.002050 0.006546 0.002382 -0.005354 -0.002293 -0.000230 0.003759 -0.003642 -0.002239 0.004031 0.002170 0.004203 -0.004593 0.003355 -0.002702 -0.000244 0.006265 -0.001055
痛 0.001350 0.002252 0.000365 -0.005411 -0.006832 0.003608 -0.000904 -0.001235 -0.003022 -0.002045 0.006012 -0.003935 0.003694 0.001684 0.001987 -0.004038 -0.002848 -0.006065 0.000334 -0.001458 -0.001653 -0.004206 0.004773 -0.000050 -0.007379 -0.003190 -0.000445 0.002895 0.003810 0.002640 -0.003128 0.003107 0.004514 -0.001351 0.002318 0.006517 -0.005123 -0.000947 -0.000778 -0.009283 -0.000801 0.004340 -0.002000 0.000729 0.004415 -0.004050 -0.000985 0.001741 -0.004749 -0.000291 0.005749 -0.005894 0.002128 -0.003774 -0.000202 -0.002045 -0.000371 -0.004701 -0.001139 0.000213 -0.003172 0.002897 -0.001561 0.004874 0.002265 -0.004403 0.006486 -0.004935 -0.001524 -0.002717 -0.003665 -0.007623 -0.001006 0.004753 0.001323 0.002850 0.004782 -0.001656 -0.006892 0.000558 -0.004442 -0.008105 -0.002629 0.002914 -0.002619 0.003111 -0.000947 -0.000574 -0.002754 -0.001288 -0.006664 0.007997 -0.004428 0.006730 0.001990 -0.001195 0.006576 0.001809 -0.003064 -0.004914
次 0.002164 -0.001893 -0.003351 -0.004504 -0.001656 0.007530 0.003210 -0.003916 -0.000063 0.000308 0.001610 0.002993 0.000692 -0.003978 0.002743 -0.002204 -0.001092 0.005736 -0.001663 0.000254 0.000712 -0.007292 0.008458 -0.007068 0.000298 0.001484 0.005139 -0.002132 -0.001522 -0.004255 -0.009189 0.003635 -0.004558 -0.005250 -0.008379 -0.000051 0.001905 0.005562 -0.002310 -0.007138 0.000000 0.004888 -0.002069 -0.006870 -0.001163 -0.001940 -0.000623 0.003349 -0.001626 0.000578 -0.005807 0.001245 0.003989 -0.001052 0.004617 -0.000224 -0.004334 0.006415 -0.002717 -0.008713 -0.000493 -0.006463 0.002468 -0.001578 -0.006345 -0.000379 -0.008428 -0.003939 0.002540 0.004328 0.003416 -0.001147 -0.001120 -0.002679 0.003640 -0.003377 -0.001833 0.003948 -0.003568 0.002716 -0.001736 0.003738 -0.000264 -0.000580 0.003552 -0.000002 -0.001477 -0.002035 0.001886 0.004659 -0.000432 0.001595 0.004045 -0.003314 -0.005932 0.000990 0.007749 -0.000803 -0.000162 0.007776
发 -0.006355 -0.002263 0.002473 0.007250 -0.002765 0.001907 -0.005146 -0.001274 0.007172 0.003343 -0.002838 -0.002628 -0.001492 0.000704 0.000264 0.000862 -0.000302 -0.000648 -0.002310 0.000630 0.002802 0.006232 -0.004158 0.003681 0.006239 0.005511 0.002911 -0.005966 -0.007642 0.003649 -0.000504 0.001111 0.005403 0.008832 -0.007596 -0.004534 -0.003248 -0.002841 0.000868 -0.001046 -0.001966 0.006219 0.003235 -0.004298 0.003780 0.004236 0.000719 -0.000530 -0.001711 -0.004446 0.003605 -0.005615 0.005160 0.001699 0.009069 -0.006203 -0.000171 0.004231 -0.002334 -0.002655 -0.001139 0.002876 -0.002641 0.000328 0.005585 -0.004233 -0.001820 0.001062 -0.002571 0.002358 -0.006030 -0.006604 -0.006015 0.003442 0.006821 -0.002327 0.007693 0.000491 -0.000622 0.004656 -0.000741 -0.005934 -0.005084 0.005961 0.005675 0.004172 0.002080 0.000608 0.000624 0.002321 -0.001955 0.003591 0.006863 0.001538 0.007654 0.003615 0.000356 0.000555 0.001182 -0.001569
下 -0.007685 -0.002830 -0.001492 -0.005149 0.001687 0.005944 0.000087 -0.001139 -0.003839 0.001991 0.000767 0.002286 0.001779 -0.001782 -0.002003 0.004147 -0.001753 -0.001553 -0.006034 0.005973 -0.000176 0.006617 0.005484 0.003058 0.004636 0.001478 -0.003853 -0.004050 0.004424 -0.000345 -0.002861 -0.000247 -0.002282 -0.005654 0.000776 -0.003112 -0.005179 0.003259 0.000664 -0.002857 0.007990 -0.003467 -0.001959 0.003863 0.002501 -0.002167 0.002102 0.001638 0.006536 0.006703 -0.005104 -0.001723 -0.005889 -0.003395 -0.005579 -0.003800 0.001018 -0.007508 0.004104 -0.001460 0.005235 0.001707 0.002460 0.005239 0.006154 -0.006796 -0.004906 0.004542 -0.002240 -0.003551 -0.005949 0.000612 0.002965 0.007442 0.000298 0.004995 -0.007122 -0.005246 -0.001325 -0.000110 0.000740 0.004848 0.001651 -0.004803 0.003549 -0.001001 0.001440 0.000073 -0.003638 -0.004060 -0.001055 -0.004687 0.003393 0.000446 -0.003893 -0.007511 0.006112 0.000733 -0.001466 0.000151
8 -0.002188 -0.006390 -0.002361 -0.002728 0.004214 0.004047 0.007237 -0.006578 0.006772 0.001553 -0.001524 0.003154 -0.003582 -0.004400 -0.004396 -0.008539 -0.006913 0.003273 -0.001737 -0.002342 -0.000894 -0.003140 -0.003424 0.001687 0.004299 -0.004539 -0.001329 -0.005828 0.001094 -0.000660 0.004852 -0.004959 -0.001484 -0.006696 -0.006695 0.001566 0.002533 0.000812 0.003844 -0.005094 0.000329 -0.004657 0.002746 -0.001806 0.002448 -0.001402 -0.005247 -0.004078 -0.007331 -0.007896 -0.005146 -0.002237 0.003046 -0.003822 0.003660 -0.006384 -0.004807 0.003989 0.002594 0.000103 -0.007097 -0.007991 0.001679 -0.003081 0.000901 0.003452 0.008664 -0.004513 -0.000307 -0.000379 0.005990 0.002890 0.004311 0.002243 -0.002371 -0.001858 -0.000586 0.004203 -0.008738 0.000452 0.001565 0.001809 0.003669 0.005552 0.003060 0.002010 -0.000270 0.000572 0.003307 0.007135 -0.003927 -0.005474 -0.003398 -0.002867 0.001816 -0.000361 -0.003131 0.002162 -0.004194 0.000708
征 0.001471 -0.003606 -0.003843 0.000863 -0.001040 -0.000804 0.005802 0.000693 0.006649 -0.001366 0.004608 -0.006238 0.004657 0.002312 -0.006708 -0.000563 -0.000157 0.001645 -0.000361 0.004902 0.002731 0.006178 0.002126 -0.004752 -0.002057 -0.004200 -0.006373 -0.002354 -0.002079 0.004981 0.004221 -0.003442 0.001442 -0.008931 0.001740 0.007196 -0.005541 0.005010 0.002918 0.003211 0.003201 0.003816 0.006486 0.005020 0.000792 0.002378 -0.007223 -0.005920 -0.004357 -0.002638 0.008268 -0.005887 -0.000759 0.000359 0.002098 -0.001917 0.001114 -0.004736 0.003063 -0.001119 -0.004734 0.002091 -0.003211 0.002003 0.006471 0.000955 0.003071 0.001466 -0.000216 0.004841 -0.004280 -0.002093 0.002502 -0.005459 -0.002042 -0.002110 0.006524 -0.002986 0.004086 0.005683 0.000655 -0.000803 -0.004017 -0.008592 0.000123 -0.001261 0.001073 0.002571 -0.002445 -0.000785 0.001148 0.006210 0.001877 -0.000954 -0.002090 0.005948 0.004611 -0.005398 0.007483 0.002079
大 0.003197 0.003704 0.004029 -0.001271 0.001764 -0.001040 -0.005292 0.008750 0.000419 -0.005324 -0.004339 -0.004070 0.003348 -0.001131 0.003843 -0.000182 -0.000626 -0.003934 0.005018 -0.002145 0.006738 0.001758 -0.001958 0.002571 -0.007437 -0.006293 -0.000840 0.007918 -0.007551 0.006321 -0.002276 -0.000042 -0.006222 0.001468 -0.001550 -0.002109 -0.003456 -0.007772 -0.003276 0.002514 -0.001221 -0.002335 0.002612 0.003435 -0.000091 -0.003974 -0.002738 -0.000164 -0.000816 0.005248 0.004883 -0.007488 0.003011 -0.002296 0.006401 -0.005206 -0.005400 0.002401 0.004585 -0.000965 -0.003176 -0.001623 0.005284 -0.005549 -0.002788 0.007416 -0.002558 -0.003035 0.004438 -0.002552 0.001924 0.000053 -0.002119 -0.000913 -0.000155 -0.000444 0.004522 -0.002134 0.002862 -0.001528 0.000191 -0.000371 -0.000266 -0.004892 -0.000224 0.000137 -0.003969 -0.001377 0.006753 0.003165 0.001488 0.004092 -0.004827 -0.006900 0.000098 0.002098 -0.000609 -0.006136 -0.004917 0.000233
） -0.003697 -0.001233 -0.001036 -0.006010 0.007156 0.005184 0.003367 0.004471 -0.000026 -0.007774 0.003665 -0.001828 -0.006319 0.000530 0.003847 0.002009 -0.006636 -0.002184 -0.007818 0.008329 -0.004513 -0.005286 -0.007602 -0.004400 0.002703 0.001828 0.002649 0.003185 -0.000977 -0.004396 0.001861 0.003108 -0.001399 -0.003816 0.001055 0.006221 -0.002666 0.003273 -0.004480 0.006014 0.005610 0.003014 -0.002681 -0.002692 -0.004949 -0.001814 -0.000378 0.002200 -0.007382 0.002275 0.001176 0.000259 -0.005063 -0.002110 -0.002988 -0.004008 0.005857 -0.005568 -0.000107 -0.000028 0.000655 0.003436 -0.003362 -0.003141 0.002728 0.001901 -0.000710 0.005750 0.000350 0.000591 0.004905 -0.002072 0.007765 0.007434 -0.001062 0.005328 0.005558 -0.004100 0.009136 -0.003685 0.001253 -0.002130 -0.005825 0.001484 0.006522 -0.001276 0.004235 -0.002223 0.006125 0.001073 0.003387 -0.000781 0.000030 0.000275 0.000824 -0.000931 -0.003044 0.007977 0.000223 0.000973
（ -0.003073 -0.002227 -0.003084 0.002129 -0.005948 0.002139 -0.000084 -0.001044 -0.000805 -0.003936 -0.000281 -0.004132 -0.007184 -0.001463 -0.005992 -0.000973 0.004595 0.001189 0.004773 0.006779 -0.000198 0.000570 -0.001566 0.001155 0.005131 0.000201 0.004869 -0.000768 0.001161 0.008638 0.003488 -0.002454 -0.001320 0.005352 -0.000609 -0.005050 -0.001224 -0.002710 -0.000908 -0.005369 -0.006820 0.003942 0.003165 -0.003699 -0.003763 -0.000057 -0.005401 -0.004005 0.002192 0.000521 0.005082 0.001120 -0.003123 0.005919 0.001299 0.000359 -0.001626 -0.003260 -0.000790 0.002904 0.007796 0.001847 -0.004245 0.006131 -0.001096 0.007524 0.007101 -0.004129 0.001865 0.001189 0.000007 0.003160 -0.000216 0.002417 0.002905 -0.006203 -0.002469 0.000617 -0.002661 0.005266 -0.006731 0.005573 -0.000375 -0.003860 0.003898 -0.005561 -0.008121 -0.005569 0.006613 0.002822 -0.007422 -0.000665 0.003840 -0.001150 -0.007739 -0.002365 0.009295 0.001093 0.000911 0.002331
入 -0.005235 0.003030 -0.003370 0.001864 -0.000096 -0.007325 0.000957 -0.007899 0.002310 -0.004807 0.000213 -0.000080 -0.002739 -0.000985 0.001055 -0.001790 -0.004102 0.002325 -0.005397 -0.004156 -0.000218 0.000109 0.000215 0.000952 0.001638 0.004310 -0.005476 -0.003907 0.007898 0.001308 -0.001095 -0.001147 0.008706 0.007938 0.005176 0.001252 0.002451 0.006347 -0.000533 -0.008021 -0.004041 0.005986 -0.000076 0.003374 -0.007629 -0.007877 0.003124 -0.004167 -0.004976 -0.007945 -0.004365 -0.007652 0.002302 -0.008729 0.001370 -0.000456 -0.001781 0.000164 0.002302 0.005123 -0.003053 0.002464 -0.004152 -0.001923 0.008588 -0.005090 -0.006326 0.007609 -0.004817 -0.002730 0.005123 0.006180 0.006877 -0.000781 0.005179 -0.005400 0.002357 -0.000300 -0.005974 -0.002817 0.003350 0.002026 0.006183 0.000062 -0.002316 -0.004230 0.003858 0.005488 -0.000255 0.006584 -0.000234 -0.008360 0.004406 -0.000655 -0.006683 0.004287 0.003198 0.006201 0.003654 -0.000951
日 -0.008352 0.002449 0.000756 -0.009032 0.001796 -0.004498 -0.000211 -0.007567 -0.002744 0.006051 0.006297 0.006144 -0.004921 0.002672 0.000951 -0.000168 -0.002858 0.001580 -0.005724 0.000109 -0.002988 -0.001130 -0.005245 -0.008091 -0.001692 0.002868 0.002750 -0.005662 -0.001729 -0.001406 -0.007567 0.002740 0.000683 -0.003223 0.001518 0.001477 0.003719 -0.008473 -0.001374 -0.000504 -0.002043 0.006524 0.005604 0.004126 0.000411 -0.004730 -0.003173 0.001876 -0.006939 0.001875 -0.004790 0.000654 0.002771 -0.001570 0.004448 -0.007418 -0.006814 0.006696 -0.005778 -0.005557 0.001622 -0.000609 0.006384 -0.001678 -0.000726 -0.001375 -0.001206 0.001130 0.001795 -0.002006 -0.002829 -0.000931 -0.002956 -0.006730 -0.003733 0.006482 -0.005557 0.003679 0.000074 -0.004118 0.009583 0.003423 0.005194 -0.002762 -0.001999 0.007379 -0.000177 -0.005500 0.005952 -0.006101 0.001568 -0.004353 -0.001720 -0.003180 -0.006130 0.002853 0.004389 -0.003969 -0.001531 -0.001425
7 -0.007254 0.002022 0.002678 0.005660 -0.000795 0.002408 0.006886 0.008148 0.002411 -0.005934 0.000146 0.001564 0.000243 -0.001634 -0.005033 -0.007685 0.006464 -0.005830 -0.000640 -0.006153 0.001634 -0.001171 -0.007999 0.002979 0.001773 0.000473 0.004993 -0.002343 -0.003716 -0.003530 0.003180 -0.000219 -0.000442 -0.003506 -0.001816 -0.000542 -0.003447 -0.000691 0.004133 -0.005080 0.002205 0.008921 0.003346 0.000737 0.000482 0.004796 -0.003072 -0.009257 -0.004094 -0.006981 0.008996 0.000381 -0.002417 -0.005762 0.000323 0.004223 -0.000622 -0.003043 0.000274 -0.000143 -0.001464 -0.000726 -0.006790 0.005145 -0.003280 0.004918 -0.003267 -0.008657 0.003357 0.007686 -0.004157 -0.001190 -0.000046 -0.000119 0.002310 0.001620 0.003745 -0.001899 0.008165 0.001797 -0.000870 -0.001641 -0.001339 -0.001433 -0.000833 0.000419 0.001431 0.000939 -0.004616 -0.000607 -0.003924 0.001590 -0.008415 -0.004730 -0.001423 -0.000796 -0.000068 -0.000323 -0.008656 0.006665
觉 0.000109 -0.004495 0.000705 -0.002651 0.000654 -0.000835 -0.007954 0.000752 0.005724 -0.000114 -0.000640 -0.001754 0.004894 -0.005611 0.001360 0.005277 -0.003461 0.002307 0.005638 -0.005766 -0.003994 0.007207 0.002053 0.000390 0.007095 0.004392 0.000419 -0.000451 -0.000027 0.007627 0.003910 0.001218 -0.004979 0.005209 0.004827 0.003604 -0.000121 -0.004940 0.002867 0.000920 -0.003837 -0.004166 -0.000150 0.001559 -0.009460 0.001295 0.000145 0.003773 -0.002789 -0.001225 0.003915 0.003129 -0.001666 0.004564 0.002154 -0.002172 0.008125 -0.002547 0.006665 -0.004897 -0.000530 -0.000702 -0.005224 0.002583 -0.006420 -0.001763 0.000891 -0.001771 -0.000588 -0.006137 0.000749 0.008027 0.001929 0.001393 -0.000372 0.006923 0.008290 0.006801 -0.003301 0.003927 0.002469 0.001034 0.000703 0.002837 -0.000877 -0.005913 -0.003231 -0.001564 0.007241 -0.000484 0.001539 0.006679 0.002230 0.004563 0.000135 -0.009545 -0.004931 0.002428 -0.001992 0.004438
月 0.003896 0.001842 0.002160 0.001094 -0.003543 0.000174 -0.004388 0.002541 -0.003522 0.004300 0.002370 -0.005442 0.002067 0.000480 0.006362 -0.000086 -0.001813 0.000382 0.002160 -0.003830 0.001769 0.009359 0.004026 -0.006998 -0.002111 -0.003617 0.006015 0.004177 0.005213 -0.000702 -0.003321 0.000235 -0.002292 0.006078 -0.003011 -0.003677 0.000464 0.001104 0.001602 0.003321 -0.007194 0.004783 -0.006367 0.008979 0.003610 -0.004409 0.004193 0.004201 0.000385 -0.001175 0.002578 -0.000768 0.003686 0.003157 -0.005057 0.000106 -0.003985 0.002704 0.003785 -0.004642 -0.004959 -0.001653 -0.002125 -0.005852 0.001983 -0.002005 0.003007 0.001612 -0.006911 -0.002401 -0.000825 -0.001126 0.000351 0.002034 -0.004110 -0.002064 0.004332 0.001313 -0.003808 -0.003049 -0.005647 0.002316 0.002362 0.006524 -0.006521 0.000004 0.000212 -0.001925 -0.002310 -0.005347 -0.003788 0.005248 0.003994 0.005446 0.005474 0.003940 -0.005388 0.003881 -0.001293 0.004243
神 0.007888 0.002141 0.001850 0.002068 -0.001952 -0.004173 0.001876 0.002751 0.001493 0.001632 -0.000117 0.002491 0.000562 -0.002632 0.005546 0.002829 -0.007234 -0.000225 -0.002260 0.007809 -0.003973 -0.001251 -0.001206 0.000509 -0.000801 -0.000201 0.003856 -0.000814 0.000757 0.006416 -0.006525 -0.003740 -0.001143 -0.000109 -0.004675 0.004262 0.005200 -0.007326 -0.003401 0.000442 -0.003511 -0.003825 -0.005697 0.005548 0.008029 0.005203 0.001633 0.003782 0.002933 0.001518 0.004480 0.002437 -0.001703 0.006065 -0.004377 0.003772 -0.003952 0.001386 -0.008167 -0.002300 0.001169 -0.004525 -0.001910 0.002499 -0.002163 0.005542 -0.004981 -0.002612 0.000226 0.000895 0.001082 0.004999 0.003825 0.000204 -0.003861 0.001116 -0.003145 -0.000969 -0.005799 -0.001091 0.003479 0.001748 -0.000249 0.006066 -0.006033 -0.004671 0.003191 0.000648 -0.003466 -0.001993 -0.001699 0.002525 -0.001048 -0.006213 0.009258 0.008031 0.001912 0.006002 -0.001245 0.008043
有 -0.001413 -0.001213 0.003309 0.003587 -0.005737 0.000727 -0.002939 0.005357 -0.003981 0.001074 -0.000178 -0.005631 -0.000571 0.003864 0.002133 0.000642 -0.001892 -0.002690 0.007970 0.000318 0.001595 0.002762 -0.002211 0.001841 0.002949 0.006773 0.001328 0.002315 -0.007445 -0.007177 0.007453 -0.001480 -0.001819 -0.003639 -0.002649 0.001572 0.001756 0.000373 0.005303 0.000742 -0.000385 -0.006604 0.003818 -0.001689 0.002865 -0.008644 0.003165 -0.002113 -0.001149 0.000605 -0.000943 -0.004451 0.005150 -0.002774 -0.002724 0.003939 0.002839 0.001261 -0.003733 -0.003395 0.001037 0.004188 0.000602 -0.002104 0.005109 0.002647 -0.007654 0.000813 0.002382 -0.006153 -0.001727 -0.001269 -0.003619 0.002265 -0.002545 0.003247 0.003806 -0.000873 -0.001292 -0.000906 -0.001377 0.009581 0.007864 -0.001332 0.002946 0.002227 0.004624 -0.001876 0.008169 -0.009718 0.000262 -0.000125 -0.001729 -0.002409 0.000176 0.001934 -0.000854 -0.004202 0.000087 0.000417
射 -0.001167 -0.001030 -0.002013 -0.004296 -0.007315 -0.005105 0.001499 0.008428 0.003062 0.003701 -0.004949 0.004955 -0.004698 -0.005610 -0.003133 0.000708 -0.001218 -0.000343 -0.002084 0.001074 -0.008121 0.000493 0.005885 0.009564 0.003644 0.006272 -0.007497 0.001246 -0.001271 -0.006168 0.003881 0.000603 0.000367 0.006472 -0.001989 0.001637 -0.005408 0.001742 0.001414 -0.005656 -0.000173 0.001124 -0.000624 -0.001511 -0.006119 -0.007048 -0.000467 0.005401 0.003325 -0.002228 -0.005266 0.002756 0.004051 0.005628 0.002337 0.002910 -0.007961 0.003864 0.003790 0.005288 0.001869 -0.004942 -0.002901 -0.002247 -0.005446 0.000386 -0.002990 0.003605 -0.007343 -0.006921 -0.000519 0.004720 0.002874 0.006759 -0.004050 -0.002741 -0.000985 0.002414 0.004926 -0.004810 0.007392 0.000558 -0.006016 0.000349 0.004475 0.007601 0.003403 0.006349 -0.001464 0.005744 -0.004641 -0.007694 0.003560 -0.008937 0.006563 -0.007741 0.003609 -0.004958 0.001493 0.000614
压 -0.001925 -0.006899 -0.003350 -0.001235 -0.006048 0.000275 -0.000603 -0.006486 -0.003034 0.005672 0.000156 -0.000778 -0.001521 -0.003197 -0.005312 0.002555 -0.000554 0.003595 -0.004561 -0.000616 0.005426 0.000814 -0.003755 0.001412 0.003909 0.002963 -0.002068 -0.003595 0.002365 0.003793 0.006597 0.000676 -0.000296 -0.004480 0.001449 -0.002113 0.004284 0.003546 -0.004776 0.006397 0.005555 -0.002487 0.002063 -0.002297 0.006355 0.005083 0.006590 -0.002390 -0.002030 -0.001927 -0.001115 -0.003637 0.002479 0.000183 0.002773 -0.000236 -0.003594 0.000491 -0.003577 -0.003567 0.003099 -0.008631 -0.006309 -0.002614 -0.003194 0.005134 0.005395 0.002298 -0.008427 0.002800 -0.003529 0.002347 0.004474 -0.002246 -0.000421 -0.002081 -0.006165 0.002056 -0.002073 0.002469 0.005102 -0.005512 -0.001140 0.002854 0.001220 -0.001419 0.004454 0.002334 0.003168 -0.007373 -0.005020 -0.000248 -0.002686 0.006030 -0.005427 0.003253 0.001753 -0.004741 0.000108 0.003136
清 0.004459 0.001400 0.001922 -0.004765 0.002406 0.002409 -0.000217 0.002760 -0.004665 -0.003662 0.000530 -0.003328 -0.007596 -0.008383 -0.002211 -0.004165 0.002569 -0.000941 -0.003888 -0.006522 -0.006399 0.005569 -0.001944 0.008309 -0.006247 -0.007311 0.005113 -0.003224 0.001135 -0.002887 0.003491 -0.003956 -0.001017 -0.003811 -0.007315 0.001708 -0.003956 -0.003843 -0.006514 -0.001670 0.002664 0.004280 0.000740 -0.002876 -0.004485 0.000761 -0.000186 -0.002045 0.001179 0.001685 0.003038 -0.007089 -0.008159 0.001348 0.006837 0.007157 0.000331 -0.000011 -0.007172 -0.007731 -0.001707 -0.003359 0.003269 -0.001076 -0.002148 -0.003569 -0.009134 0.001900 -0.002009 0.003063 -0.004480 0.001089 0.007300 0.003894 -0.002839 0.001528 0.002464 -0.003810 0.000925 -0.006169 -0.006324 0.005543 0.000710 -0.005412 -0.001885 -0.005557 -0.001259 -0.004613 0.000825 -0.002291 -0.002815 0.006417 -0.006817 0.005732 0.007507 0.001302 0.006853 -0.001873 0.002386 -0.003084
间 0.002130 -0.004081 0.008477 0.001036 -0.000884 -0.005507 0.004099 -0.001761 0.003111 -0.000356 0.000011 -0.002829 -0.005256 -0.002405 0.003609 0.002123 -0.001522 -0.003434 0.001939 0.003002 0.002226 -0.002231 -0.000074 0.004889 -0.006211 -0.004764 -0.008960 0.001396 0.000877 -0.005076 -0.002340 0.007155 0.005808 0.008153 -0.000298 -0.000381 -0.002992 -0.000709 -0.005650 -0.002197 0.005038 -0.000268 0.000039 0.007911 0.000347 -0.005046 -0.006849 -0.001637 -0.004081 0.004722 0.003431 0.006360 -0.001955 0.001503 0.000014 0.002813 -0.000021 0.001436 0.004438 0.001611 0.001559 -0.003950 0.004149 -0.006905 -0.005797 0.002573 0.001018 0.009069 -0.001121 -0.004520 0.004552 0.001548 -0.005945 0.002721 0.002721 -0.001442 -0.001465 -0.003841 0.001798 0.007374 0.000044 -0.008239 -0.004934 -0.002872 -0.000851 0.005541 0.000686 0.001158 -0.000744 0.001683 0.000605 -0.003581 -0.003722 0.004332 0.003398 0.004680 -0.003883 -0.002125 -0.002451 -0.000214
高 -0.001888 0.005433 -0.003056 0.003299 -0.001412 -0.004136 0.002293 -0.001356 -0.000287 0.000364 -0.006536 0.002187 -0.001860 -0.001719 -0.000109 0.005473 -0.003786 -0.002970 0.006922 -0.006133 -0.000437 -0.003616 0.002799 -0.001905 -0.005660 -0.004424 -0.002529 0.003460 0.002188 0.001576 -0.004582 -0.002369 -0.005358 0.004742 -0.007002 -0.006226 0.008734 -0.002105 -0.004973 0.004048 0.000771 0.004218 0.006788 0.002686 0.000195 -0.005869 -0.003650 0.003986 0.000952 0.003265 0.003339 0.000776 -0.006774 0.000443 0.001074 -0.004206 0.005050 0.002648 0.001307 0.007076 -0.001464 -0.004133 0.000658 0.001685 0.001800 -0.006619 0.004982 -0.009413 -0.000042 0.000630 0.001568 -0.004566 0.004375 -0.000143 -0.005808 0.004148 -0.002487 0.001683 -0.004741 0.001104 -0.003393 -0.001685 0.001313 -0.001175 0.007145 0.000632 0.001522 0.004103 -0.000774 -0.003233 -0.002356 0.001306 0.003830 -0.001991 -0.005187 -0.001098 0.000760 0.005166 -0.006251 0.008285
区 -0.000921 0.003311 -0.005667 -0.004061 0.002739 0.000427 -0.001986 0.004777 0.003934 -0.002162 -0.002899 0.005898 -0.008499 0.003007 -0.001448 0.003314 0.003273 -0.007959 0.001473 -0.001868 -0.004802 -0.004835 0.000236 -0.002854 -0.001201 -0.001452 0.003281 -0.002919 -0.002836 0.000312 -0.001858 -0.004070 -0.006932 0.003520 -0.001327 0.004499 0.004558 0.002279 -0.006089 0.003141 0.005017 0.001907 -0.000865 -0.002083 -0.002120 0.002080 0.003172 0.000558 -0.005160 -0.002707 -0.005698 -0.004893 0.003005 -0.000887 0.001968 0.000249 0.002213 -0.007606 0.006179 -0.002481 -0.006282 -0.002619 0.001035 -0.002292 0.007241 -0.002906 0.005587 -0.001591 0.000050 -0.003145 -0.000173 -0.001513 -0.001605 -0.003207 0.002763 -0.000675 -0.001227 0.007515 -0.001129 0.004813 -0.000625 0.006021 0.002485 -0.006223 0.004475 0.001123 -0.007307 0.004503 -0.003158 -0.004274 -0.003737 -0.000591 0.001879 -0.003645 0.003888 0.000265 -0.005736 0.000281 -0.001045 -0.003898
: -0.008025 -0.001169 -0.000720 -0.007063 -0.003995 0.005008 -0.004480 0.005031 -0.001212 0.000032 0.002883 0.004938 0.000076 0.004705 -0.000738 -0.003737 0.006450 -0.006086 -0.003891 0.007934 0.005607 -0.002065 -0.002023 -0.002653 -0.004350 -0.001446 0.004977 0.000698 -0.004844 -0.001055 0.004634 0.003416 0.001527 0.002722 -0.006301 -0.005491 0.005778 0.002528 0.002924 -0.004102 0.007677 0.000143 -0.000331 -0.002079 -0.005076 0.001495 0.000469 -0.000395 0.000951 0.002042 -0.001221 0.006533 -0.000339 -0.005242 -0.007922 -0.000330 0.005140 -0.002874 0.004120 -0.003494 0.003754 0.005148 0.002798 0.000963 0.001477 0.000126 0.003673 0.006870 0.002335 0.006584 0.004143 -0.004918 0.002129 -0.000966 -0.000308 0.004558 -0.005428 -0.000703 0.004674 -0.004257 -0.000487 0.003605 -0.006153 -0.002809 -0.004029 0.003078 -0.008084 -0.006701 0.003254 -0.000408 0.003214 -0.008186 -0.000274 0.007532 0.003112 -0.001996 -0.001435 -0.005284 -0.000865 -0.000120
膜 -0.004153 -0.002238 0.002650 0.003609 -0.003058 -0.005152 -0.006967 0.006154 -0.002392 -0.008542 0.002460 0.001345 -0.000044 -0.000829 0.000564 -0.000957 0.002027 0.001948 -0.007401 0.001712 -0.005887 0.002357 -0.006150 -0.001597 -0.006431 -0.002638 -0.004199 -0.005371 0.000768 0.007151 0.006991 0.003883 0.004261 -0.004339 -0.003024 0.003266 0.000684 0.002213 0.003554 0.002373 -0.006448 -0.004157 0.003333 0.008039 -0.000362 -0.005919 0.001202 -0.000468 0.006339 -0.005807 -0.006976 -0.008942 0.003835 0.002872 -0.001212 -0.004745 -0.007198 -0.001499 -0.001287 -0.000386 -0.004359 0.004999 -0.002036 -0.008532 -0.005709 0.000825 0.000314 -0.003787 0.001964 -0.000847 0.003916 -0.001626 -0.002675 -0.001498 0.004646 -0.006029 -0.001473 -0.001707 0.002718 0.001815 -0.004456 -0.000344 -0.008548 0.000143 0.006426 0.002349 -0.000921 -0.003711 -0.004620 0.001262 -0.003635 0.005076 -0.000426 0.008252 -0.005714 -0.009485 0.003937 0.003996 0.000222 -0.002321
等 0.004337 0.001585 0.000210 0.002328 0.001186 -0.003485 -0.004432 0.001405 0.001757 0.001250 -0.004410 -0.004596 0.006227 -0.005004 0.002927 0.003307 0.000771 0.001506 0.003561 0.006945 0.000351 0.000491 0.001741 -0.002285 0.000410 0.004224 -0.009299 -0.005118 0.001740 -0.008305 -0.007664 -0.004344 -0.001515 0.001675 0.006443 0.000252 0.001052 0.002325 -0.000523 0.000591 0.002450 0.000453 -0.006603 -0.004557 -0.000110 -0.006516 -0.001800 0.001346 0.003117 -0.006185 0.007583 -0.000319 -0.001148 0.007234 -0.002726 0.005516 -0.005076 -0.000240 0.005415 0.002376 -0.002509 0.000698 0.003149 0.003619 -0.001243 0.002492 0.000662 0.000261 0.001183 0.002613 -0.002039 0.007606 0.006940 -0.006497 0.007297 0.006943 0.005122 -0.001898 -0.002177 0.003448 0.000418 -0.000678 0.005615 -0.000155 -0.001096 0.005076 0.005629 -0.000918 -0.002484 -0.001390 0.002077 0.000792 -0.002160 0.008710 0.004024 -0.000206 -0.002668 0.002660 0.003806 -0.001382
头 0.007790 -0.003045 0.004230 -0.004357 -0.004383 0.000654 0.005487 0.005011 0.003082 -0.004641 -0.007629 0.003553 -0.003501 -0.000122 -0.002221 -0.002602 -0.000402 -0.000035 -0.003337 0.006386 -0.000084 0.006904 -0.001048 -0.000569 0.005527 0.001390 0.000454 -0.000442 -0.000652 0.003327 -0.000004 -0.002629 -0.002820 0.002078 -0.004552 -0.000070 0.004015 0.004051 -0.008481 -0.000960 0.003567 -0.005318 0.007584 0.003026 0.000911 -0.005092 -0.002409 0.008589 -0.001295 0.003296 -0.002612 0.006980 0.001165 -0.001154 -0.000869 -0.006526 0.000705 0.005464 -0.008992 0.000149 -0.000394 0.001060 -0.002400 -0.003844 -0.003179 -0.004532 0.004293 0.000376 -0.004034 0.003210 0.000176 -0.006421 0.000851 -0.000291 0.003633 -0.004368 0.002456 -0.004353 0.008387 -0.004746 -0.007293 -0.006521 0.002209 0.000410 0.002380 0.001387 0.002817 0.004789 0.002093 0.004346 -0.002375 -0.000005 -0.001786 -0.001157 -0.003643 -0.002558 0.003042 -0.000429 -0.003167 0.005462
中 0.004778 -0.003329 -0.001180 -0.006524 0.001592 -0.001433 -0.005309 -0.001866 -0.000135 0.005496 0.002888 -0.000923 -0.000997 -0.003976 0.002609 0.004956 0.002555 0.001606 0.006681 -0.007686 0.001680 0.005620 -0.006659 -0.000024 0.000501 -0.005981 -0.008709 -0.006910 -0.006251 0.003438 -0.003180 -0.005100 -0.002371 -0.000133 0.002306 -0.004988 -0.005598 -0.007991 0.004214 -0.003932 -0.007348 0.006326 -0.001199 0.004076 0.003991 -0.002822 0.003717 0.001951 0.000442 0.001182 0.006260 0.000588 -0.002099 0.003200 0.007379 -0.006544 0.004054 -0.001237 -0.003750 0.001011 -0.002371 -0.005612 -0.003909 -0.006177 0.000419 0.002197 -0.001601 -0.007724 0.000353 0.000669 -0.007910 0.004624 0.003854 -0.003252 0.002748 0.000578 -0.004441 -0.005728 0.000297 0.005459 0.000348 0.002221 0.004243 -0.004578 -0.005299 0.008928 0.002500 -0.000570 -0.000838 -0.002540 0.005855 0.000596 0.005347 0.003570 0.002609 0.002513 0.004104 0.002809 0.004529 -0.001745
物 -0.006273 0.000665 -0.004508 -0.001431 -0.006138 -0.000004 0.004674 -0.003104 0.004512 0.002804 -0.008664 -0.000707 0.008570 -0.001328 -0.008563 0.005464 0.008703 0.002727 -0.001717 0.001739 -0.006779 -0.000477 0.002290 0.000962 -0.000578 -0.003051 -0.000050 0.005102 0.002283 0.001757 0.003925 0.002629 -0.006407 -0.002431 -0.005719 0.005217 0.003143 0.004483 -0.001871 0.003899 -0.005794 -0.001862 -0.006689 -0.005581 -0.004353 0.008565 -0.000096 0.005760 0.002529 0.002696 -0.001236 0.000352 0.005002 0.008603 0.001686 -0.003697 0.000057 -0.001764 0.005586 0.007828 0.001811 0.003270 -0.007531 -0.002225 -0.002034 -0.008457 -0.002413 0.006229 -0.001989 0.002193 -0.000050 0.007746 -0.005223 0.004474 0.003189 -0.000017 0.005370 0.002649 0.000643 -0.006231 -0.005014 -0.002588 -0.003164 0.002949 0.001608 0.006320 -0.001911 -0.000258 0.000824 0.001797 0.001400 0.000178 -0.000273 0.001347 -0.002661 -0.001696 -0.004949 -0.003877 -0.001582 0.001374
治 -0.000247 -0.001805 0.000481 -0.008794 -0.006596 -0.002933 -0.001721 -0.001457 0.001784 -0.000333 -0.007955 0.001884 0.003225 0.002474 -0.002142 0.007087 0.003798 -0.004479 -0.007075 -0.000764 -0.004108 -0.000337 -0.003168 0.003263 0.000081 -0.007517 0.006133 0.004281 0.004706 0.001598 -0.008139 0.002067 -0.003517 -0.003777 0.003545 -0.004513 -0.005305 -0.001827 -0.002952 -0.002678 -0.003970 0.007212 -0.001231 0.003253 0.005568 -0.002098 -0.001426 0.001744 0.006666 -0.004473 0.000894 -0.004996 -0.007756 0.001952 0.002367 -0.001238 -0.004946 0.003525 0.000215 -0.001327 0.000090 -0.003082 0.004916 0.001375 0.007167 -0.004852 0.005261 -0.005809 -0.000942 0.005288 0.008102 0.001639 -0.004042 0.002436 -0.000016 0.006326 -0.005657 -0.001926 0.002310 0.004497 -0.004049 -0.001475 -0.005491 0.007592 -0.000416 0.000995 -0.001901 0.001972 -0.004353 -0.006585 -0.000261 -0.001300 -0.000325 -0.001193 -0.001129 0.006214 -0.001131 -0.000559 -0.004874 0.005453
医 -0.001914 -0.003073 -0.002668 -0.000022 0.000626 -0.001007 -0.000078 -0.001676 0.003171 -0.000614 0.004087 0.003822 0.000700 0.003684 -0.007783 0.001525 -0.001670 -0.004131 0.002401 0.004598 -0.006497 -0.001373 -0.004027 -0.003178 0.002513 0.006507 0.002336 -0.001509 0.008018 0.006322 -0.004852 -0.001091 -0.001084 -0.006235 0.003045 -0.004462 -0.003365 -0.004169 -0.009446 -0.006008 -0.008178 -0.004615 -0.000565 0.006941 0.001684 -0.004338 -0.001307 -0.001734 0.003246 0.001615 0.002893 -0.000668 0.000603 0.000556 0.001204 -0.005095 -0.006837 -0.000433 0.002099 -0.002134 0.003674 -0.000241 -0.000398 0.001057 0.004440 -0.006562 -0.003318 0.007291 0.004346 -0.002113 0.001768 -0.001161 -0.000739 0.002084 -0.000396 0.007922 -0.001009 0.000476 0.000459 -0.005825 0.005203 -0.002673 -0.007977 0.001265 0.000760 0.000226 0.001161 -0.000275 -0.001972 0.007900 0.002169 -0.000118 -0.003941 0.003709 -0.000278 0.000058 -0.007287 -0.003311 -0.008856 -0.001177
住 0.002208 0.005185 -0.001027 0.000298 -0.000728 -0.001220 -0.001210 0.001040 0.003547 -0.001316 0.004041 0.004804 -0.005739 0.000356 -0.002299 -0.007246 -0.005003 -0.001100 -0.000923 0.000223 0.003499 0.000323 -0.003224 -0.005142 -0.006409 0.000608 -0.001028 -0.003157 -0.004840 0.002745 0.000793 0.002044 0.006464 0.003603 -0.000653 -0.001992 -0.000594 0.002510 0.000148 0.001006 0.000722 0.000259 0.000119 -0.005269 -0.007103 -0.005158 -0.001659 -0.002606 0.002365 0.005421 -0.001107 0.001593 0.003069 -0.002095 -0.001570 -0.005644 -0.005629 -0.006331 0.002469 -0.005044 -0.008503 -0.002466 0.003616 -0.005664 -0.000403 0.003728 -0.006414 -0.005894 -0.001706 0.002342 0.000026 -0.005544 0.002674 -0.000278 -0.001177 -0.000794 -0.003816 0.001643 0.000576 -0.002047 0.002501 0.000509 0.004687 -0.000406 -0.005911 -0.008935 0.005697 -0.000487 0.004583 -0.001845 0.009061 0.004209 0.001897 -0.004352 0.002648 0.001659 0.002250 -0.004121 0.004683 0.000320
9 0.001103 0.000447 0.000846 -0.004304 -0.003528 0.000675 -0.002624 -0.002691 0.008663 -0.002378 -0.001943 0.007851 -0.002982 -0.005743 -0.000154 -0.006852 0.000950 -0.000643 0.003160 -0.002222 0.004140 0.005357 -0.008296 0.003213 -0.007298 -0.000806 -0.004213 -0.002725 -0.001386 -0.005662 -0.001366 0.005174 0.000997 -0.005128 -0.004038 -0.007898 -0.000528 -0.002774 0.006171 -0.002060 0.005130 0.001651 -0.003232 0.003982 0.000083 0.003754 -0.002411 -0.006416 0.001917 0.005137 -0.003258 -0.000989 0.004273 -0.001822 0.002165 -0.003282 0.004584 0.008725 -0.000924 0.008787 -0.003081 -0.000185 -0.006546 -0.003652 -0.000470 0.000646 0.001846 -0.000843 0.007436 -0.007331 0.004438 0.003917 -0.005048 -0.002712 0.001308 -0.000725 -0.000875 -0.003582 -0.004582 -0.004846 0.001410 0.000321 0.001781 0.000605 -0.003035 -0.005795 -0.002848 -0.008503 0.002794 -0.007873 0.002977 -0.003204 -0.004753 -0.004365 0.000861 0.005019 -0.004456 0.001250 0.001963 0.000538
部 0.000250 -0.004966 0.003882 -0.004526 -0.001030 -0.003378 0.003132 -0.005592 0.003108 -0.000306 0.005696 -0.003086 0.001392 -0.000293 0.004861 -0.000679 -0.002761 0.001604 0.000738 0.004852 0.004116 0.001237 -0.005470 -0.000345 0.002811 -0.001910 -0.002426 0.006259 -0.003404 0.002067 -0.004140 -0.007357 -0.005642 -0.001584 0.004567 -0.004513 -0.001460 -0.008508 -0.001854 -0.003246 0.001724 0.000273 -0.002634 0.000071 0.000521 0.003624 -0.001930 0.001615 0.001619 0.002193 0.006988 0.000577 0.004592 -0.000497 -0.004080 0.004582 -0.001270 -0.003918 -0.000618 -0.000946 0.003181 0.003197 0.002070 -0.000521 -0.001904 0.002960 -0.001845 -0.006549 0.006887 0.002214 -0.004716 -0.002308 -0.001859 -0.000594 -0.006657 0.004546 0.007060 -0.005477 -0.003109 0.006792 0.003467 0.001065 0.001659 0.000684 0.004312 0.000224 -0.000316 -0.002310 -0.000086 0.002658 -0.008164 0.001477 0.000103 0.000396 0.003691 0.001048 0.000463 -0.004114 0.000884 -0.003302
经 -0.004147 -0.006979 0.001447 -0.002353 -0.003493 0.000687 0.003545 -0.000234 0.000818 0.002027 0.001202 -0.007725 -0.007232 0.001060 -0.002035 -0.006385 0.004597 -0.001748 -0.003233 0.000854 -0.003601 -0.003346 0.002519 -0.001461 0.009731 0.006119 0.001883 0.000778 -0.002580 -0.003507 0.000289 0.003154 0.001966 0.002533 0.001652 0.003376 0.006059 -0.000332 0.001016 -0.000040 0.008657 -0.003423 0.003353 0.000334 -0.003323 -0.000922 0.008960 -0.003136 -0.009247 -0.008926 0.002498 0.005879 -0.001673 -0.000396 -0.002402 -0.001946 -0.005800 0.007801 0.000135 0.002202 0.000260 0.000410 0.000975 0.004565 -0.004718 -0.000504 0.001667 0.005069 0.005624 0.004701 0.003897 -0.002247 0.006561 0.003165 -0.004256 -0.003122 -0.006024 0.002134 -0.000047 0.002609 0.001760 0.004476 -0.000398 -0.004347 -0.000236 -0.004763 -0.002124 0.000120 0.005207 -0.009425 -0.002795 0.007800 -0.001141 0.007088 0.000400 -0.004627 0.002606 0.006334 -0.004036 -0.001249
情 0.003319 0.007518 -0.000645 0.000448 -0.001840 0.006619 0.007364 -0.003831 -0.005077 -0.000387 -0.001176 0.000235 -0.001203 0.002376 0.007744 0.007197 0.009098 0.007705 0.007027 -0.006150 0.003964 0.002073 0.007090 -0.003630 0.007239 -0.009229 0.001835 0.003126 0.003038 0.003894 -0.004227 -0.004974 0.008616 -0.000881 0.006638 -0.001109 0.004194 0.000486 0.006835 0.004984 0.003219 0.008085 0.004711 -0.002056 0.002583 0.001586 -0.000309 -0.004778 0.008453 0.001939 0.001539 -0.002712 0.008285 0.004684 0.006487 0.002819 -0.004299 0.001217 0.003180 -0.002574 0.002154 0.001522 0.005815 0.001587 0.005684 0.003751 -0.003060 -0.006202 -0.004705 -0.000981 0.008389 -0.005372 0.007818 -0.005170 0.001606 -0.005631 0.001904 0.001073 0.003994 -0.004955 0.002150 0.005169 -0.006469 0.005704 0.000514 -0.006796 -0.001408 0.001471 -0.000844 -0.002032 0.001922 0.002010 0.008540 0.005982 0.006869 -0.002492 0.001656 0.001984 0.000497 0.000689
g 0.007962 -0.001454 -0.008379 0.002646 -0.006717 -0.009232 0.000467 -0.002269 -0.000021 0.001248 -0.005729 0.000068 -0.002190 -0.004693 0.000465 0.000683 0.000226 -0.005023 -0.000999 -0.007392 0.003221 -0.001904 0.001007 0.001343 -0.002791 0.003452 0.006146 0.000431 -0.002311 0.001408 -0.009189 -0.002415 0.002775 0.001621 0.007773 -0.002947 0.001073 0.002205 -0.007911 0.001562 0.002053 -0.004384 0.000112 -0.001734 0.002969 0.002222 0.002724 -0.002463 0.004189 0.004198 0.001841 0.008241 0.007639 -0.004318 -0.000420 -0.001802 0.003823 0.000071 0.001976 -0.000843 0.005984 -0.004794 -0.006152 -0.003602 -0.001003 -0.003489 0.006819 -0.001161 0.006580 0.001836 0.001274 -0.009319 0.002452 0.001648 0.000872 0.002688 0.006474 -0.001274 -0.001946 0.007244 -0.004869 -0.007026 -0.004573 -0.003664 -0.002529 0.002234 -0.000585 -0.001737 0.003221 -0.000108 -0.002190 -0.003997 0.006606 0.007429 0.005507 0.000687 -0.002668 -0.001952 -0.003310 0.007307
系 -0.002676 -0.000684 -0.002396 -0.001490 -0.004534 -0.000117 -0.000554 -0.009442 -0.002434 0.000662 0.005810 -0.004062 0.007326 0.003372 0.001158 0.002953 0.004439 -0.000102 -0.003594 -0.004145 -0.000869 -0.007069 0.004645 0.003688 -0.002227 -0.007982 0.005412 0.008325 0.005242 0.001475 0.004510 -0.000288 0.003408 0.003503 -0.006510 0.000671 0.000519 0.004679 0.003934 0.003171 0.001957 0.000393 -0.000062 0.005354 0.007370 0.001456 -0.008164 0.000845 -0.003703 -0.001663 0.000866 -0.000009 -0.002431 -0.000036 -0.000304 0.006038 -0.004686 0.003065 0.003198 0.001083 -0.004474 -0.007400 -0.002236 -0.003333 -0.008148 0.000451 -0.005164 -0.003366 0.005408 -0.000359 -0.000383 -0.004341 -0.000838 -0.002295 0.003603 0.004669 0.000500 -0.000852 0.004040 -0.001610 0.002415 0.003673 0.005487 -0.003037 -0.000113 0.003877 -0.001051 -0.007210 0.002762 -0.000308 -0.001648 0.004109 0.000736 0.006133 -0.001689 -0.008580 -0.002684 0.000936 -0.006454 0.000829
脉 -0.003385 0.001321 0.003383 -0.000823 -0.000076 0.005579 0.002072 -0.004981 -0.004658 0.004190 0.004386 0.006066 -0.007756 0.001244 0.001686 -0.002886 0.008472 -0.006130 0.002144 0.001607 0.000801 -0.006069 -0.004769 -0.001059 -0.000198 -0.005621 0.000995 0.001143 0.005388 0.000314 -0.006503 -0.005016 -0.007507 0.000587 0.005089 -0.003218 0.000738 0.002615 -0.006342 0.007498 -0.007903 0.005750 0.007323 0.001379 0.002492 -0.002388 0.006854 0.004959 -0.002264 -0.002714 -0.003479 -0.000299 0.001394 0.002388 0.002987 0.007513 0.000202 -0.006282 -0.002136 0.006362 -0.001022 -0.000101 0.001198 -0.003962 0.002896 0.001266 0.004283 0.000664 -0.000267 0.006368 0.000412 0.004582 -0.004202 0.003818 0.001451 0.003826 -0.003474 -0.001061 -0.003045 0.003418 0.002341 0.004797 -0.006735 -0.009090 0.000291 0.003242 -0.005377 0.000094 -0.003992 0.001133 0.003410 -0.003799 -0.006187 0.008983 -0.002935 -0.000394 0.001047 -0.004153 -0.004420 0.000922
疗 0.004265 0.007214 0.000485 -0.003363 0.000440 0.005854 0.003834 0.002201 -0.000047 0.003374 -0.002063 -0.001759 0.001392 0.005738 -0.005589 -0.007210 0.003491 0.002694 -0.008817 0.000937 0.008609 -0.007190 0.003306 -0.003057 0.009813 -0.004621 -0.001106 0.003616 0.006613 0.006912 0.002573 0.000692 0.001376 -0.002195 -0.001073 0.003274 -0.001593 -0.004424 -0.002490 -0.002325 -0.002239 -0.001370 -0.002570 0.005475 -0.001980 -0.009493 0.002345 -0.000263 0.006708 -0.003428 0.003018 -0.001402 -0.007325 0.003473 0.006492 -0.005810 -0.000220 -0.005497 0.001869 -0.000871 -0.003262 -0.001358 0.000387 0.003158 0.001725 -0.001588 -0.003792 -0.005312 -0.002971 -0.007474 -0.003723 -0.001490 0.000316 -0.000819 -0.000189 -0.001886 0.002131 0.004528 -0.002711 -0.006343 -0.003616 0.000745 -0.000497 0.007721 0.003993 0.000958 0.003650 0.005941 -0.000555 0.000965 0.001198 -0.004778 -0.003265 0.007704 0.006331 -0.000243 0.004189 0.006025 -0.003087 -0.001621
X -0.005749 0.006990 -0.005481 0.000639 -0.000581 -0.007880 -0.000638 -0.000585 -0.003240 -0.003274 0.005529 0.001707 0.000142 0.001908 -0.004834 -0.007921 -0.000867 0.001086 0.001180 0.002634 -0.001068 0.003401 -0.006823 0.004842 -0.006997 0.002119 0.000380 -0.002344 -0.003498 0.000211 -0.001902 0.007160 0.002088 -0.001045 0.002782 0.005522 -0.000706 0.001969 0.003026 -0.002198 -0.004863 0.004335 0.003104 -0.008245 0.003607 0.001399 -0.003664 0.006740 -0.001512 -0.001142 0.005948 0.001111 -0.005555 -0.004019 0.000995 0.006397 0.003589 -0.000196 0.002407 0.003987 0.003322 0.004347 0.003420 -0.007103 0.000657 -0.001926 -0.007964 0.002406 0.007273 0.000830 -0.000376 -0.001180 -0.001054 0.000122 -0.003393 -0.001534 0.007932 -0.000235 -0.008522 0.003656 -0.004316 -0.000654 -0.004790 0.003004 -0.006116 -0.001684 0.000729 -0.002877 -0.000526 0.002513 0.000832 0.003444 0.004576 0.004984 0.000472 -0.001044 -0.003291 0.002029 -0.005542 -0.006741
阴 0.001281 -0.005550 0.000013 0.001041 -0.000172 -0.001746 -0.006871 -0.002979 -0.002349 -0.000616 -0.005302 -0.003915 -0.000595 0.000259 0.002741 -0.004676 0.004370 0.006096 -0.003254 0.007352 0.000583 0.003941 0.005348 -0.000106 0.001440 -0.001311 -0.004481 -0.002764 0.003385 0.001622 0.002303 0.003739 0.001199 -0.001375 0.000363 -0.001966 0.003189 -0.000939 -0.006875 -0.000522 -0.002043 0.001835 0.007247 -0.005148 0.004764 -0.000364 0.000076 0.000792 -0.007240 -0.000758 0.002056 0.001950 -0.006205 0.003560 -0.005544 -0.002843 0.008323 0.003782 0.000166 0.001583 0.005825 0.002363 -0.002954 0.004015 0.001584 -0.003824 0.007859 -0.001628 -0.005084 0.003639 0.005535 0.000861 0.002675 0.003037 -0.003271 -0.001574 0.008783 0.008540 0.000883 0.000601 -0.004210 -0.003077 -0.000552 0.000873 -0.002025 -0.000988 -0.001519 -0.004320 -0.004247 -0.002183 0.003175 -0.002258 0.008120 -0.001573 0.000283 0.003893 0.004245 0.002049 -0.000765 -0.000029
眼 0.005814 -0.000238 0.001241 -0.002494 -0.007666 0.001355 0.003623 0.004535 0.007110 -0.000476 0.004234 -0.005516 -0.003529 -0.001491 -0.004638 0.002523 0.000633 0.004273 -0.004640 0.001046 -0.004280 0.001581 0.007962 -0.001247 -0.001780 -0.001753 -0.008257 -0.002047 -0.005017 0.005506 0.004908 0.003432 0.002058 -0.005418 0.000445 0.004751 -0.007776 -0.002995 -0.003864 -0.002829 0.005620 0.005154 -0.006867 -0.000300 -0.001569 -0.004322 -0.000827 0.001613 -0.000231 -0.001553 -0.001773 -0.000748 -0.004554 -0.007998 0.001039 -0.003327 0.002867 -0.008702 0.005992 0.003473 -0.001640 -0.001966 -0.003130 0.001480 0.000999 -0.002962 -0.004998 0.005718 -0.001176 -0.009481 -0.006552 0.007480 -0.002640 -0.007549 -0.003923 -0.005304 -0.003426 -0.001695 -0.002637 -0.000559 -0.003934 -0.005733 -0.005204 -0.004942 0.001994 -0.001565 0.003473 0.000442 0.005396 0.004765 -0.007136 0.000770 -0.004985 0.004524 0.000202 0.002609 -0.001323 0.002057 -0.004618 -0.003046
均 -0.003102 -0.000889 -0.002802 0.006299 -0.001376 0.004429 -0.003652 -0.002338 0.009072 0.000693 0.005676 -0.006630 0.000385 0.000274 0.000034 -0.005705 -0.004304 0.005158 0.000540 0.006381 0.000567 0.002231 -0.004920 -0.002080 -0.005224 0.002593 -0.004528 -0.004687 -0.007214 0.006583 -0.008624 0.006941 0.001646 -0.004552 0.000966 0.004980 -0.004153 0.001278 -0.002742 0.002623 0.007242 0.003355 -0.003451 0.002393 0.004089 -0.003705 0.003165 0.007385 0.004295 0.001778 0.005043 0.001492 0.001929 0.000121 0.001318 0.000719 0.002967 0.006662 -0.007220 0.003844 -0.008043 -0.006280 0.006531 0.007943 -0.002623 0.002991 -0.001330 0.003650 0.000729 -0.001386 -0.004534 0.007531 -0.001100 0.000003 0.008818 0.000086 0.001777 -0.002134 -0.000357 0.005453 0.004715 -0.002296 0.003772 -0.008330 0.002952 -0.001264 0.002161 0.007963 0.004759 0.001907 -0.003093 -0.004867 -0.003839 -0.009647 -0.000950 -0.001840 0.006543 0.001706 -0.004297 -0.000076
- 0.001390 -0.000143 0.000718 -0.001610 0.000482 -0.002581 -0.004925 -0.002227 0.003375 -0.000731 0.003958 -0.005669 -0.005602 0.004549 -0.005800 0.000601 0.000909 -0.001498 -0.007516 -0.008315 0.006489 0.001246 -0.002501 0.000284 -0.001366 0.003080 -0.004062 -0.003215 -0.006544 -0.000652 0.006213 -0.004945 -0.003780 -0.006067 -0.004711 0.001638 0.003068 -0.005879 0.005893 0.000397 -0.005880 0.007570 -0.002803 0.006311 0.005205 0.000931 0.000221 -0.005336 -0.000128 -0.001983 -0.003929 0.005079 0.002030 -0.001777 -0.003390 0.004886 0.006547 0.001235 0.006831 0.006587 0.005295 0.001661 0.001722 0.006599 0.005064 0.004314 -0.001151 0.006502 0.004229 -0.002499 -0.003617 -0.001014 0.004604 0.004430 0.006259 0.005349 0.007173 0.005440 0.007482 -0.005373 0.008160 -0.002043 0.000151 0.003710 -0.002903 0.003000 -0.004751 0.004017 0.002994 -0.002667 0.004715 0.004421 0.000449 -0.006911 0.000418 0.004249 -0.000686 -0.005424 -0.002757 -0.005491
前 -0.000191 -0.008297 0.003401 -0.001400 -0.001308 0.001529 -0.000765 0.007076 -0.006312 -0.006076 0.006604 -0.001057 0.008439 -0.001011 0.001724 0.002437 -0.001180 -0.005245 -0.002480 -0.002783 0.007390 0.001040 0.002087 0.001656 0.006011 -0.005369 0.007660 0.002130 0.000196 -0.005097 0.001586 -0.006235 -0.000233 0.000661 -0.002566 0.001074 0.002589 -0.001891 -0.002262 0.000492 -0.001574 0.000036 -0.003333 -0.001222 0.002040 0.001171 0.003365 0.005814 0.000154 0.007173 0.000805 -0.001516 -0.000867 0.005059 -0.004018 -0.003221 0.008783 0.003903 -0.000124 -0.001170 0.003303 0.006282 0.004646 0.005530 0.002982 0.004934 -0.001991 -0.002570 0.001814 -0.001980 0.002524 -0.003547 -0.002289 -0.005514 0.001869 0.002532 0.000905 -0.000382 -0.006446 -0.003609 0.000320 -0.003417 -0.002842 0.001582 -0.004527 -0.001560 -0.006216 -0.001483 -0.006815 -0.000582 -0.001023 -0.003883 -0.000991 0.000069 0.005675 -0.003352 0.003190 0.005938 -0.005911 0.001197
理 -0.005115 0.001252 -0.000952 -0.001534 -0.003328 0.000256 -0.001776 0.000413 0.000665 0.002325 -0.004343 0.005762 0.000947 0.007543 -0.004321 -0.002876 -0.001637 -0.004969 -0.001721 0.004289 -0.003406 0.000980 0.003775 -0.001571 0.003876 -0.007509 -0.000672 0.004400 -0.006457 0.003098 -0.005247 0.003201 0.000503 0.005241 -0.003709 -0.000659 -0.008854 0.003853 0.003758 0.003065 0.003732 -0.000470 0.000753 -0.001960 0.002217 0.001498 0.004798 0.001266 0.007228 -0.006606 -0.000379 0.003929 0.000226 -0.003715 0.006842 0.004491 -0.000984 0.008048 -0.005486 0.001543 0.003028 -0.000904 0.004620 0.000541 -0.004786 -0.001368 0.003590 0.001038 0.000955 -0.000491 -0.003452 0.002629 -0.007176 0.000207 -0.004944 0.001201 -0.001368 0.006798 0.003745 -0.005539 0.008194 -0.000548 -0.006378 0.007637 0.006820 0.003966 0.005352 -0.001290 0.001293 -0.000086 0.005109 -0.002342 0.005014 -0.005959 -0.001593 0.006191 -0.001446 -0.002193 -0.005542 -0.001933
触 -0.000023 -0.001356 0.004026 -0.007924 -0.005255 0.008047 0.002038 -0.006772 -0.000605 0.000344 0.003780 -0.001400 0.003729 -0.001488 0.006234 0.001243 -0.000983 -0.004188 0.000454 -0.007998 -0.001817 -0.005893 0.005190 -0.007776 0.001583 -0.000048 -0.002734 -0.000900 -0.004088 0.002072 0.003765 0.003476 -0.005598 0.000195 0.002542 -0.006690 0.004824 -0.005506 0.001295 0.001139 -0.006265 -0.008935 0.001015 0.004623 -0.001831 0.002187 -0.006515 -0.007449 -0.001276 -0.001377 -0.004872 -0.009274 -0.002721 -0.004551 0.003787 -0.001076 -0.000515 0.002496 0.003098 0.003193 -0.003569 0.005849 0.002325 -0.005406 0.000272 -0.002940 0.001096 -0.002586 -0.003290 0.001249 -0.005344 -0.002282 0.000986 -0.003207 0.003713 -0.001305 0.001078 -0.005334 -0.003711 -0.006279 -0.003119 -0.002363 -0.001886 -0.007523 0.000043 -0.004673 -0.000127 0.002142 0.001261 -0.002484 -0.004924 0.004296 -0.001280 0.000582 0.000594 0.006184 -0.001541 0.000275 -0.002670 -0.005075
人 -0.001359 0.000574 0.001388 0.004205 0.001278 0.006326 0.000734 0.005604 -0.003251 -0.002375 -0.008246 -0.006003 -0.006160 0.003279 0.008492 -0.006756 -0.002398 -0.005589 0.005336 -0.001709 0.009170 -0.008369 -0.001930 0.001319 -0.000246 0.000903 0.000163 0.003377 -0.001075 -0.001365 -0.004434 -0.005632 0.000133 -0.002768 -0.004555 -0.007190 -0.002819 -0.000149 0.009053 -0.005164 -0.001747 0.001160 0.005944 -0.002733 0.005823 0.004023 0.002899 0.001314 0.003478 -0.004956 0.005440 0.001241 0.003184 0.000787 -0.001680 -0.000311 -0.009079 -0.002134 -0.006235 0.004118 -0.004729 0.001340 0.001745 0.003283 -0.002464 0.005320 0.004920 0.001035 -0.005529 0.001000 0.002005 0.001173 0.000584 0.001245 0.007720 -0.000209 -0.000080 0.002032 -0.001519 0.001482 -0.002189 -0.002859 0.001043 0.001931 -0.000052 0.006040 0.007088 0.004865 0.001622 0.005162 0.004237 -0.001676 -0.007332 0.001033 0.002337 -0.001192 -0.003103 0.000980 -0.004418 0.001811
验 0.002861 0.004254 -0.004302 -0.002770 0.000525 0.000531 -0.002379 -0.006073 0.007532 -0.001903 0.005715 0.004983 -0.000574 0.004346 0.000268 -0.000321 0.007710 -0.001374 0.003619 -0.006228 0.002020 0.001795 0.000020 -0.000159 -0.002116 0.005355 -0.002740 0.000804 0.005810 -0.003010 0.001350 0.003877 0.000207 0.000761 -0.002260 -0.002771 0.005331 0.007399 -0.001018 -0.000439 -0.000614 -0.002957 -0.007085 -0.004257 -0.001329 -0.003320 0.001488 -0.001125 -0.004703 0.001369 -0.001493 0.000292 -0.007196 -0.003532 -0.000286 0.004255 -0.004578 -0.001362 0.000838 0.007877 -0.003774 0.000366 -0.001689 -0.002073 0.001920 0.003767 -0.000916 0.003336 0.002429 0.002309 0.002920 -0.004926 0.007199 -0.002039 0.004536 -0.000880 -0.007533 -0.001047 0.001671 0.006831 0.003395 0.003841 0.002383 0.000590 -0.001861 0.002547 -0.000095 0.001044 0.004460 -0.007459 0.000089 0.007311 0.002328 0.000071 -0.007020 -0.000457 0.000307 0.002968 0.004467 0.001202
症 0.004436 0.000044 -0.003953 -0.002788 -0.002850 0.000556 0.001820 0.005889 -0.005271 0.006582 -0.005591 0.005174 0.006034 0.000031 0.004023 -0.002922 0.001587 -0.005128 -0.003434 -0.004619 0.001685 -0.000323 0.003246 -0.009368 0.005237 0.002542 0.002379 0.005777 -0.002953 -0.000815 0.007256 -0.000480 -0.006616 0.006286 0.005128 -0.004982 0.000868 0.000552 0.004682 -0.000530 0.006300 -0.004655 0.001754 -0.008154 -0.006317 -0.006952 0.003199 0.000407 -0.000097 0.000307 -0.001835 -0.006461 -0.000979 -0.003203 0.000723 -0.003820 -0.000184 0.002485 -0.004074 -0.004538 -0.005275 0.002490 -0.004307 0.003419 -0.001876 -0.006509 0.001863 -0.000686 -0.005298 -0.005588 0.000077 -0.001193 -0.001616 0.000688 0.000874 0.000223 -0.006359 0.000757 -0.002786 -0.002547 0.000459 0.003180 0.008725 -0.003033 -0.001842 -0.000330 -0.001385 -0.002471 0.002087 -0.004774 0.002162 0.000812 0.001804 0.006314 -0.001801 -0.002415 -0.004589 -0.001598 -0.000284 0.001743
作 0.000772 -0.003507 -0.000036 0.005241 0.000394 0.000818 0.004833 0.003843 -0.000140 -0.002731 0.001666 0.001069 -0.001516 0.000875 0.002200 -0.004633 -0.003920 0.000878 -0.002625 -0.008608 0.001495 -0.000699 -0.002004 0.006209 0.003445 -0.003861 -0.008797 0.004773 -0.000198 0.003460 0.003127 0.001523 0.005941 0.005385 0.005048 0.002330 -0.005811 0.009043 -0.006498 -0.007362 0.003290 0.000892 -0.003917 -0.004723 -0.003732 -0.001022 -0.003950 -0.000323 -0.000603 -0.000235 -0.001030 -0.002300 -0.008672 -0.007611 -0.001667 -0.007400 0.000801 -0.000698 -0.001798 -0.004171 -0.003171 -0.002610 -0.004007 0.006279 -0.008261 -0.002008 -0.003963 0.000203 -0.006649 0.006381 -0.003344 0.002721 0.004541 0.003966 0.000540 -0.001651 0.008356 -0.001809 0.000279 -0.001045 -0.002145 -0.001196 0.006010 -0.000941 -0.000903 0.001680 -0.002126 -0.003878 0.000878 -0.003056 -0.005058 0.004644 -0.001152 -0.004536 -0.004166 0.003487 0.002915 -0.001145 -0.006870 0.001597
试 0.000974 -0.000215 0.002543 0.000529 -0.000887 0.006297 -0.000086 0.002472 -0.002656 -0.001540 -0.000821 -0.002731 0.007467 -0.007274 0.000159 0.005152 0.003924 -0.004344 0.000640 -0.002460 0.001583 -0.001822 0.002819 0.007837 0.002125 0.000931 -0.005269 -0.005637 -0.001903 -0.001434 0.006669 0.001507 0.004750 -0.004398 0.000639 0.000904 0.004165 0.005294 0.003911 0.003610 0.000157 0.001261 -0.000297 0.008330 -0.001134 0.000713 -0.002163 0.002861 -0.003750 0.004633 -0.008056 0.001069 -0.004069 -0.003089 0.000788 0.000048 0.000472 -0.008616 -0.007756 0.005052 0.004662 -0.003767 -0.001031 -0.000388 0.003720 -0.002852 -0.005835 0.003825 -0.007513 0.002939 0.004488 0.000409 0.001673 0.007719 -0.001272 0.003269 -0.000119 0.000637 -0.003070 -0.001966 0.000002 0.002155 0.003696 -0.000585 0.005285 0.003179 0.001427 -0.004754 0.003686 -0.000791 -0.002267 0.008616 -0.003743 -0.001920 -0.002306 -0.001555 0.001067 -0.001768 -0.001784 -0.000413
后 -0.006386 -0.006546 0.000281 -0.006848 -0.000111 0.000983 -0.000166 0.000766 -0.001337 -0.005481 0.001411 0.001171 0.007435 -0.006864 0.002576 0.000391 -0.005041 -0.003186 -0.001961 0.003415 -0.003118 -0.005158 0.003482 -0.002321 -0.005866 0.001090 0.005660 0.002859 -0.005790 -0.000503 -0.004503 -0.004550 -0.003647 -0.000096 0.003801 -0.000483 0.005427 -0.007070 -0.001407 0.002610 0.001416 -0.002748 0.000890 -0.000336 0.001465 -0.004872 -0.003530 0.000965 0.004644 0.007501 0.002369 -0.001453 0.002026 -0.004091 0.002691 0.006330 0.002029 0.004780 0.002105 -0.007019 -0.001657 -0.000129 0.006629 0.001126 -0.004536 0.000486 -0.002451 0.007624 0.004652 0.001168 -0.000096 -0.002706 -0.003220 -0.002520 0.003637 -0.000452 0.002315 -0.001629 -0.003916 0.002266 -0.000166 -0.000700 0.001309 0.000644 -0.007268 -0.009108 0.001208 0.002032 -0.001072 0.000852 -0.001575 0.000221 0.003682 0.002669 0.002087 -0.002151 -0.000423 -0.001317 -0.001329 -0.002156
颈 0.002648 -0.004676 -0.000756 -0.001823 -0.003601 -0.004075 0.000353 -0.001027 -0.001352 -0.002699 0.004549 0.006007 -0.001440 -0.004321 -0.008439 0.001531 0.002530 0.004693 0.003384 0.009226 -0.002800 0.007137 0.005874 -0.006345 -0.000905 0.004594 0.006081 0.005471 -0.005042 0.002405 -0.002140 0.004939 -0.002432 -0.001794 -0.001253 0.006740 -0.000033 0.001670 -0.003574 -0.001563 0.001066 0.001034 -0.004248 0.003099 0.001093 0.000473 0.006420 -0.000718 0.000348 0.001807 0.007650 0.004233 0.000890 -0.002951 0.000312 0.002171 -0.003960 -0.003572 0.002322 0.002235 0.000584 -0.007363 -0.001209 0.007242 0.003118 -0.001882 -0.000290 -0.002828 -0.004314 0.003064 0.000800 -0.002197 -0.003231 0.002999 -0.009670 0.002907 0.002928 -0.002512 -0.004949 0.004599 0.007269 0.002409 -0.000144 -0.003751 -0.004932 -0.005142 -0.000309 -0.000678 0.004132 -0.003464 -0.001845 0.006359 -0.001427 -0.006905 -0.001054 0.001491 -0.008420 0.003472 0.002166 -0.008424
况 0.006722 0.007448 0.005192 0.004138 -0.003944 0.001145 0.002848 -0.001275 -0.005048 -0.000180 0.001638 0.008515 -0.002477 0.001798 0.000723 0.004195 0.005951 -0.002396 0.003140 -0.000748 -0.004304 0.000536 0.006570 -0.003661 -0.004306 0.008194 0.000433 -0.001107 -0.001135 -0.004184 0.003760 -0.004511 -0.000891 0.001164 0.007515 0.004170 -0.005052 -0.002394 -0.002436 -0.003918 0.003611 -0.002896 0.003036 0.006468 -0.001496 0.004695 -0.000961 0.002393 0.002589 -0.001174 -0.005131 0.002028 -0.000234 -0.000217 -0.000424 -0.004697 0.003175 -0.000213 0.000858 -0.005235 0.000303 0.001231 0.006833 -0.008920 0.007912 -0.002027 0.004380 0.000038 0.004352 0.002093 0.008404 -0.001217 0.008899 0.006221 0.003374 -0.002761 -0.001592 -0.001070 0.009550 -0.000151 -0.004454 0.001811 0.005049 -0.000442 0.001809 -0.004374 0.000506 0.001437 0.008967 0.000472 0.004000 0.003792 -0.004169 -0.003569 0.001881 -0.001139 0.005003 0.002228 0.008338 -0.002734
